{"W1": [[0.2099566729739443, 0.25397708095407495, 0.07601024842345785, -0.0375452193644018, -0.2000792941821879, -0.08708645371847479, -0.06187229285744409, -0.32905222757546176, 0.2272005151203487, -0.037056467403227523, -0.28215126285211867, 0.09647448394067006, -0.05813701031809435, -0.22336214133586885, 0.14521597909056205, -0.1087513597785867, -0.30907702797817155, 0.15445331729749134, -0.019246727410625594, -0.15738249419315473, -0.24084049506764688, 0.16369226370847126, -0.14615422163672595, -0.14766355924985616, -0.009608303111336518, -0.03534290526952891, -0.03268292491407854, -0.04576488784031658, -0.3398709116451874, 0.11114368339287725, 0.13986869623253312, -0.2448540325192313, -0.0433287384146333, -0.019679816203115777, 0.005700876083391368, -0.15880526782085672, 0.05753767044663369, 0.1656394082375355, -0.050508390291319656, 0.2969524469918612, 0.03111758068658734, 0.13904266816683203, 0.08117248508579705, -0.16520226143546127, -0.21584790847147753, 0.24240431839907906, 0.022282491981832436, 0.27183046050944065, -0.022636590189216172, 0.08781071996855977, 0.25825822259169773, 0.2090676826806256, -0.20689587674441265, -0.23815691596364302, 0.14360160864396235, 0.3974764876099729, 0.25352736868888837, -0.3278316143749129, -0.21256158798424638, -0.1501566321688763, -0.13716510976777213, -0.04888644885037964, 0.16922358464392576, -0.002176317365381292], [0.2830522895078517, 0.14764184572462377, 0.09151210562041955, 0.027925009452119575, -0.13251393682643503, -0.14604896307996235, -0.10808493554831859, -0.10747126033424946, 0.10762941619969968, -0.2473375769504011, -0.12069206185606561, 0.008527572012765527, 0.21417355025870097, -0.14964791093115828, 0.12473045868181332, -0.24930904095523462, -0.15851515990833664, 0.34232432094809256, 0.011568248347619551, 0.01197666863167447, -0.2781745767392773, 0.09456482651077638, 0.14838482111070425, -0.20567980240325637, -0.24880523053493328, 0.1578603814603017, -0.042327760546663866, -0.023953357034406316, -0.2890654791015683, 0.16638712702599642, -0.09093631215196119, 0.11287054169206494, -0.011391452809628657, -0.13554963276172904, 0.0652485826682424, -0.23407999514354932, 0.06207737871460045, -0.053200000227966344, -0.08073131900051067, 0.10553281053502445, -0.41695635223251937, 0.2297059653355591, -0.09876978359865796, -0.0016111328207411482, -0.2540112106685529, 0.2574901084848082, -0.03491399505630103, 0.32612264674731706, -0.08486379741669052, 0.13732592644656297, -0.052121727343436945, 0.3162086399044694, -0.14468661037140254, -0.10673702720800607, 0.112268229200389, 0.14657315753932826, 0.0018771706836455506, -0.1957167657772186, -0.22632941406235285, -0.08410951355569952, -0.037399909125431105, 0.03635643929308674, 0.15698048564227307, -0.07852822204022211], [0.17347444059292702, -0.017681115878062013, 0.03542235024104284, -0.06484055451385352, -0.023552741577141982, -0.06553533901959635, -0.15601982217852473, -0.16290262406971168, 0.05542516114116589, -0.12534883703101465, -0.20762573819385405, -0.18979498410039297, -0.024036993018691923, -0.1427140216460765, 0.1382255327920697, 0.01243539168117658, -0.10568651781718989, 0.06619695900765404, 0.152709653817635, -0.11620990842586139, 0.027705190638978864, 0.23403238301103368, 0.16916455518845944, -0.15894336096066977, -0.3974295004948727, 0.17201313304704316, 0.03655189654613469, -0.026897103443139836, -0.18421747093216762, 0.03000426968217782, -0.03516680478295282, 0.11680671557392053, -0.23863718948316273, -0.19781489612433273, 0.10181913047846869, -0.09805156671255714, -0.08101600857278549, 0.0937986400571242, 0.03892336071058411, 0.20335073830895142, -0.16032416571508365, 0.17387821520323357, -0.04330851397515357, -0.14928602197512142, -0.13645979809610415, 0.28373628536928225, 0.1735710994696623, 0.003817453900698993, -0.08850290380714484, -0.11065672098920572, 0.09231172375691768, 0.07105533400475214, -0.192744141211475, -0.19825640634648642, 0.1844371648139675, 0.07579632446995498, 0.11429811519960843, -0.2954777754081451, -0.09336141959656541, -0.0908189198672178, -0.06273796543072442, 0.10593585889441154, 0.02179720182385779, -0.1817518304219952], [0.11503436223217292, -0.06497978087777848, -0.11688970353074296, 0.10880180193395346, -0.06472968495302957, -0.0984186055867352, -0.04277104934972893, -0.20281619945696575, 0.045219175442706094, -0.0690117927471677, 0.0038963835708060697, -0.03946302097172425, 0.11756461790504291, -0.08450356391019415, 0.10461345769883752, -0.13390879220022503, -0.13150118794607651, -0.041088174517216955, -0.07227602180942962, -0.015998748433852135, 0.059707817936716236, 0.04135369630352136, -0.004011912464245766, 0.11130319888578268, -0.06922243877407826, 0.1790295747340674, -0.049515754388763794, -0.036218879332400346, 0.12238866683347109, 0.03631477346462121, 0.060892863038479975, -0.11463190734798318, -0.03619688668936162, -0.053909222154845796, 0.06452697714734179, -0.22730079480007598, 0.011327400795661179, -0.006819911051491498, -0.028372914028870648, 0.14638228108134096, 0.06490377380358098, -0.13121152444751968, -0.047822882280888865, -0.13028632265081258, -0.05594625740992043, 0.17050129319619692, 0.014977019565749292, 0.08739923520549404, -0.09453788468176245, -0.06946806674861028, -0.040833687738229964, 0.29768025336612164, -0.084914074247771, 0.004662411892951449, -0.02313446087960526, 0.14806293314536614, 0.13825646211445583, -0.24150871203168048, -0.09420908493690093, -0.1547226318977233, -0.12438932362945866, -0.016651176885900728, 0.03570639418051607, -0.14049800509984858], [0.27856181972716, 0.00988730666139039, -0.17362045288596079, -0.09353629901987615, -0.21365749871133502, -0.058749994996664764, -0.04784130674149212, -0.2262112665939333, 0.1708545976054958, -0.2606429368408998, -0.050237166603866325, 0.12862160374206286, 0.018491310246229038, -0.2786206940306206, 0.18458705152215438, -0.3497960017538279, -0.11096467929412163, 0.20577820689734275, 0.07012710486252736, -0.13421883761775175, -0.349716340645815, 0.3829444393406761, 0.0777779782905919, -0.11458229895044948, -0.3198853431216682, 0.30852843949940645, 0.17442713753846822, 0.14517435185571087, -0.243976512553615, 0.0429013802815428, 0.16138711668495584, 0.04282794615779134, -0.30682332397862305, -0.2730038337777581, 0.14870091844202143, -0.19816243739266387, 0.07204896950825285, -0.024473574149351394, -0.10056320459406963, 0.17551106307866787, -0.5229582611326639, 0.09864696987829204, -0.011553695872209727, -0.15457750777969084, -0.031441410544012866, 0.14016856126151772, 0.16256725969453178, 0.25720314271879247, -0.07623013298003778, -0.12463307802357282, -0.035976049203793166, 0.16646428187429763, -0.2845080751411962, -0.22016289883396378, 0.13261411782710586, 0.3662399441652923, 0.13570229845335452, -0.1772961781583724, -0.3629048450573411, -0.12093147611296647, -0.13195541132376898, -0.10955305194806016, 0.14457705778238958, -0.1878214775350443]], "b1": [0.29493550413625325, 0.23105211588740543, -0.020393046315855444, -0.03307748580092695, -0.26927212548060037, -0.11348956185781736, -0.14587883201899848, -0.21555090365210886, 0.272283263297618, -0.3504567409830266, -0.2838785535127027, 0.046855293768442365, -0.019940741145070665, -0.3513084533913347, 0.2152305249449089, -0.33474303229394425, -0.3061058005468076, 0.23427180509792184, -0.03604751460275313, -0.11289601524824054, -0.2865900737992171, 0.3195330859342091, 0.11289890460600091, -0.2205077482696111, -0.3438365838514598, 0.2473647100854036, 0.025067683620286663, 0.018475781264939487, -0.36539695591244903, 0.059569744188630216, 0.07773925869974457, -0.07684669187358019, -0.16772196833610456, -0.2846399924884411, 0.0018439072289997867, -0.2213053511085259, -0.034275469815816084, 0.05936895874858259, -0.06381148753028221, 0.2289421090249565, -0.38089019174827815, 0.20594589662519733, 0.017539708647250723, -0.1744595332518659, -0.19728119154877163, 0.36453658156114777, 0.09164086365686451, 0.35474911286066, -0.050681948224303525, -0.001336261399735226, -0.007354998413097502, 0.23999234923675425, -0.25013220285703036, -0.15833726661277123, 0.19845354879567714, 0.35361787128433186, 0.1805347547004452, -0.26770335578856946, -0.33193862878478847, -0.16818854103284753, -0.12292503823321042, -0.071354469122944, 0.1900048525176894, -0.17402366797364632], "W2": [[-0.2094720616149917, -0.37653765738627726, -0.24505354208150154, -0.11637736957157635, -0.005096703046238925, -0.08797347428209225, -0.05329895671725867, -0.037354156710735685, -0.14597781815571953, -0.10786957032175945, -0.17184270487637565, -0.25812620325567526, -0.26888862511593664, -0.08597531046754092, -0.14175833566941995], [-0.10333403531784385, -0.103007130821614, -0.06671623654771362, -0.18704062924291606, -0.08742679810440342, -0.04267398874827036, -0.10891133423136952, -0.14227623924701818, -0.0002390276153797179, -0.009084384355860052, -0.055916971821548665, 0.13735389918604837, -0.08477500021730067, -0.41510669928783517, -0.006167180902700595], [0.11692367565086653, 0.11366276934168738, -0.0610810178203294, 0.13640024521248245, 0.03630970415379553, -0.0774452047500897, 0.08241430160765541, -0.08900015832931969, 0.05916099283520572, -0.04950830708015401, -0.10640432391533589, -0.06254060254495702, 0.013479909089230335, 0.005643203485638195, 0.012349481952498664], [0.06971821729550877, 0.12137367194658887, 0.0568909928564719, 0.0371400521323453, 0.07583858072277314, 0.06717745338820001, -0.005917715933011788, -0.06320995548817836, -0.18511955822294296, -0.06939616907931309, -0.00045607214124761036, 0.031603430217127214, -0.11124443566876017, 0.0052737937578741165, 0.21058346885807938], [0.04498806174491121, 0.3008563238106669, 0.12676977526567268, 0.10239771630751118, 0.14133247965027848, 0.19913470527010949, 0.17198186675099816, 0.24065245654004827, 0.10967127922872041, -0.01877463762629061, -0.05859838615239774, 0.05974518032504875, 0.09634653109347077, 0.19753950027261957, 0.03627602619207121], [0.05433001816706347, -0.042137883430924866, 0.029357561745865464, -0.049959228910482587, 0.09638210381131175, -0.050889173372517485, 0.15718537716277184, 0.0882064619222577, 0.08764232583101626, 0.028306770782632683, 0.3249127189560986, 0.05595636217337106, -0.018620039766920685, -0.01345025686769777, 0.06732152247426156], [-0.08513660970600441, 0.12104572362397087, -0.11016015845446167, 0.05548710402790632, 0.18079713642437656, -0.04418983737404234, 0.0708149823182411, 0.22737242549141412, -0.001742682242749219, 0.04595892195117689, 0.06943378922862534, 0.15339680736606034, 0.01716899753417553, 0.21027886710068078, 0.03885150267647145], [0.10633425580142832, -0.003970463943174252, 0.2989894189494297, 0.10523216706410929, 0.2119709833886294, 0.153186307412617, 0.2120831860931715, 0.06729039652873313, 0.02934233357742725, -0.0394359087430976, 0.18328193752134894, 0.017607788323723898, 0.22115600962844253, 0.13072967512702624, 0.20510215175056976], [0.016724220044841722, -0.09336285174885908, -0.2600038871748757, -0.09215386349500661, -0.0951084176418061, -0.17264008262434283, -0.11269441192744829, -0.10148305892126563, -0.09172114415012447, -0.0875324028295749, -0.0749014185740669, -0.1278628920603306, -0.0369597522517901, -0.23782382976402028, -0.1871827101471975], [0.1724019998016161, -0.05063313134682768, 0.222504135410178, 0.05545413406486085, -0.09776931313477472, 0.07829846783032715, 0.2504243858464442, 0.31574632499849214, 0.26421152439979834, 0.19529204617621337, 0.15185564269873647, 0.0424233764308596, 0.2527936476652383, 0.192492888660134, 0.26761999450344753], [-0.007501925422734889, 0.11115845136302184, 0.08457234933719798, 0.11870224171646918, 0.1845211269678157, 0.04734789345018179, 0.04388684419681451, 0.020525172277897692, -0.03324279701105512, 0.26528274299988835, 0.2730274891442139, 0.18369779638726919, 0.2618275070388307, 0.1348502228149092, 0.13698767219219196], [-0.04892757406443238, -0.10977825086438465, 0.08904195971939274, -0.03531283269799758, -0.028470395705853007, 0.021703114793808456, 0.17505171382592472, 0.01896095577522769, -0.0620665950616962, -0.03134757007394761, -0.14029929986588355, -0.09183997524420398, -0.015632966410427704, 0.040066932610380794, 0.0009234293107501849], [-0.003380773402702107, 0.014856078588663729, -0.07900079186536443, 0.0399376852908808, -0.07293533471065174, 0.1323457591952036, -0.038072742430666794, -0.06046601538545543, 0.036477031218793275, -0.2475790176920255, 0.1382802872079621, 0.13202322760572205, 0.00330712914822762, -0.12129510495541551, -0.1971363243893058], [-0.003217349144075932, 0.20792492716405303, 0.06027346597794523, 0.09004101922534503, 0.2407374653356344, 0.21581573554099878, 0.1606185306551353, 0.20532358974921408, 0.24067896513385972, 0.2935983092735349, 0.1873280863299306, 0.0993593744106525, 0.2109964945968481, 0.09545142753486344, 0.22164351213386613], [-0.17572759989293296, -0.1620427574286893, -0.1858376701226622, -0.1755864300647704, -0.1252829083364672, -0.1221718733565446, -0.027622144983556616, -0.1694054374373651, -0.07124455374439563, 0.044380558722652855, -0.014925081431559852, -0.11945990370229835, -0.017764338800582147, -0.15152813961787043, -0.018098265198640048], [0.2763177573162945, 0.1843133678182732, 0.13728229475155793, 0.09582103902456443, 0.09549044233102207, 0.13859586421145284, 0.20160326549477495, 0.13252897409124248, 0.06703658444547198, 0.15363419899522932, -0.02246808340973165, 0.06641969772796509, 0.3314302746070899, 0.30523894114125016, 0.1874834044994431], [-0.02721049587598395, 0.14944674988364373, 0.05979006044331351, 0.23692331870978448, 0.3395400841546754, 0.14035728516733217, -0.0017753346679983207, 0.13392204203917224, 0.2176895351438936, 0.02981702105822046, 0.09073231314715563, 0.1630697670688325, 0.25789336391867945, 0.15239686092470367, 0.07603228684149305], [-0.12599198402427236, 0.019202299641727795, -0.05366649874542653, -0.1857966924169536, -0.17391707780193172, -0.21205624927485572, -0.1652517786546715, 0.05210892054144064, -0.131481528370369, -0.0914483717540801, -0.2007251189064252, -0.01911828635591614, -0.09300320205077696, -0.2309859641716748, -0.16967395890811626], [-0.023323844107902496, 0.02834319052147631, 0.03990519397549206, -0.04489044982894631, 0.10717889207967862, -0.0761665515143494, 0.07555625887955415, 0.02334870053593542, -0.01749761718775285, -0.08296620126901427, -0.34040290393964223, 0.10874772568317412, -0.07731082790028143, 0.02640362201324645, 0.2838234765652587], [0.15265355565422484, 0.0823981483079077, 0.0997419147275989, 0.025341149361821767, -0.008604096598416518, -0.03590302493674641, 0.10414127670163238, -0.029340249861508506, 0.09961171402377952, -0.13962138911210445, 0.15869793702713808, -0.04665712553330306, 0.05614743016797142, 0.07596692259160097, 0.16799924284937645], [0.1335774088493807, 0.280296278098405, 0.09832093110404017, 0.21682552311813044, -0.013413308897228447, 0.06991933119663479, 0.13233671045053888, 0.18811257834008369, 0.24489164537557698, 0.07293878713207501, 0.11812301656080941, 0.21021480339252002, 0.2854293776669456, 0.026673124370375344, 0.08712584030553702], [-0.21581151339479362, -0.11806263049367294, -0.22079176935044045, -0.045891265325336786, -0.1689068193508167, -0.18629346009859707, -0.3492927014991094, -0.1430405277148883, -0.3206567777921947, -0.01918226358925501, -0.1844710964561756, 0.04190608901618125, -0.15791823978281402, -0.12845059343143875, -0.15527384583822532], [-0.09815536446755035, -0.02657606821521492, -0.05551486145032173, -0.09498625415148752, -0.053836955663117796, 0.01627572397396567, 0.09228886710423398, 0.10876746655379625, -0.1623690051881984, 0.09038936863633062, -0.002187715307648585, -0.24933005442383996, 0.06098329086568512, -0.026910966161007504, -0.12564229397791254], [0.08887535968238332, 0.04164511131297006, -0.03471924582801196, 0.1429060790202347, 0.037099390746083385, 0.1161795858074902, 0.1424380032419578, 0.03411343832063144, 0.06144392779953375, 0.03681962379324753, 0.1118036738050602, 0.11918358178690315, 0.09147880661605519, 0.15060583379828837, 0.3476502890043782], [0.1731859763906297, 0.09471070265009793, 0.23413263559988037, -0.01786612168941432, 0.4133118415407891, 0.0702481536165849, 0.09555676321040608, 0.2100277644838407, 0.10213069887378314, 0.12667659933204128, 0.49500736020645836, 0.3703942820704358, -0.004393690377182301, -0.0037720065843594576, 0.12189823335375209], [0.004023845987068993, 0.005816178886323917, -0.024313546143213363, -0.27135564067400736, -0.06867657740229431, -0.15171785684547917, -0.10090520210861177, -0.17595549042199263, -0.12014500869197338, -0.28538557436805007, -0.12970525432614857, -0.18672318428559168, -0.06911292812993729, -0.08478089529026879, -0.21449990929613583], [-0.07896313979203257, 0.044652873886450076, 0.040694749296352944, 0.09629338793091763, 0.08033140501567738, -0.04825627789272122, -0.40466184991076903, 0.232402078240259, -0.09031601164190801, -0.05812044438788875, 0.07948073789206059, -0.16694273264195383, -0.047889938147543366, 0.08353432616952257, -0.04525094310277162], [0.03355675735287631, 0.052126506011088584, 0.011405601099084823, 0.007836077448165087, 0.13868653922684732, 0.05628603639948326, -0.3284528353117534, -0.06092981041430188, 0.02826967770019047, -0.008417144724772247, 0.050043788984701805, -0.19728629001722914, 0.008721236096781262, -0.05191823615854329, 0.07194475640729751], [0.15728800349116934, 0.09681069225079125, 0.11312896562344578, 0.2796639071052925, 0.3480868138300097, 0.12322322325811084, 0.0911243388155492, 0.4228238407106868, 0.1416904209556903, 0.006106480922254358, 0.1515256811630507, 0.3024981294476158, 0.19500198151471917, 0.3064910485811568, -0.0005340009963593086], [-0.10702658910261348, 0.141406334177787, -0.17443662921972092, 0.00367659969962222, -0.12476694912567121, -0.11023325349370874, 0.01049779198445587, 0.060684285871884125, 0.1526258130900291, -0.046476750623182767, -0.09922006663694874, -0.24673337611279847, -0.04176496507037598, 0.014955560983654716, -0.0189909570917675], [-0.12310906944005842, -0.014836453048086751, -0.07088801574711656, -0.07939244589179581, -0.019742856873850655, -0.10528106323657126, 0.11186739125116374, 0.06470692427295104, -0.028735058680631295, 0.04307369950020474, 0.11113173594520642, 0.04414124490651896, -0.06322146337464336, -0.23038151279428004, -0.18494056739643705], [0.14747638554418988, 0.3144561282670856, -0.14117868366683556, -0.04062883055799258, -0.08378360284921264, 0.13584528680245986, 0.05691496308621963, 0.014759840876972855, -0.07135358732449476, -0.06127769405645156, 0.011741303724081312, 0.05195292009949479, -0.035904641163802285, -0.0068497154765971655, -0.004767519896097935], [0.03261893277326072, -0.025854092066372108, 0.12241833329567878, 0.32222067347370204, 0.14121640828420107, 0.009823581540263998, 0.07852535917338102, 0.052692165214012585, 0.19356617458918154, 0.05500116517055996, 0.13167271533013541, 0.09607720985355386, 0.024808282629884267, 0.03397649244732933, 0.05658605150710751], [0.1723771991289432, 0.2453670436342054, 0.18561641430893988, -0.12690202794818176, 0.04265083931041088, 0.12153432802178138, 0.13224808323276335, 0.2185393593102454, 0.25216182227398637, 0.003039210206221298, 0.06708194217933966, 0.13876419629601466, 0.192484480890433, 0.014573372837441883, 0.12142512489892056], [0.11074525941845613, 0.07545812184882428, 0.04768465893024774, -0.1563393253008941, -0.03981499287613542, 0.013557365745618543, -0.14938663156748028, 0.003535953522601967, 0.003238362756110317, 0.12578142646864204, -0.1921562532850874, 0.04932759845575764, -0.06652640445100075, -0.17028499850843817, 0.027448380455396937], [0.25206859497610284, 0.1938184627716324, 0.0993702809842291, 0.20726459043935985, 0.14419845975436082, 0.15490893452771673, 0.07423896971547217, -0.04235872229638758, 0.22310444743682964, -0.015965381293690222, 0.05598985257927189, 0.1177060858017527, 0.1185339101594105, 0.1368713508763842, -0.05167697688265383], [-0.10669935160086447, -0.014168925703458372, -0.018659902127579828, -0.1269058731101942, -0.09142337921599396, 0.06077512424968207, 0.020761983301310745, 0.0523213376260785, 0.15346592646401672, -0.10104260747667201, 0.058202299415533905, 0.10436248016310115, -0.018046423503304602, -0.016440639719655925, -0.07064209077466346], [-0.0129560764742932, -0.00445091932639268, 0.09078577035797838, -0.05687207091068641, -0.14980343857922718, -0.01869596298566975, -0.05868539373804595, -0.14110801790926727, -0.24769311653140186, 0.17245737192916333, 0.024469691048781637, -0.08864586623506757, 0.07696341797470505, 0.04447465677054213, 0.04720293111996751], [0.09011276563495563, -0.0953419955080919, 0.19439895240134378, -0.06449478749776129, -0.04538896312505909, -0.1268479907921817, 0.09907640433739631, 0.1253448036922695, 0.05999480275512053, -0.20137399926875882, 0.09768006592526353, 0.1852667605751151, 0.3189324871407351, -0.10292482202990477, -0.22378372432452406], [-0.22643182002502343, -0.21104021130662817, -0.1525106026444548, 0.002860483900703071, -0.22621733074168576, -0.21192671637597185, -0.10492383116883733, -0.09395934465146707, -0.06843605799738327, 0.013707298937901588, -0.2687978860184439, -0.111395276816585, -0.015135006035731273, -0.04771579957385588, -0.04691663801069256], [0.21654765602339235, 0.2878386148203468, 0.10507575873305205, 0.177241793429865, 0.16780337243896057, 0.2569290225807114, 0.23322894234414343, 0.269589361628401, 0.18144727521308648, 0.08543714494149343, -0.08999030072642059, 0.22708455028096017, 0.3873467822726035, 0.09790054167249616, 0.4162237608422373], [-0.13903789648370424, -0.05324562577602154, -0.10649521186400933, -0.06269933845508405, -0.14017469180048903, -0.07144613972223361, -0.1690673087383016, -0.10554600596501855, -0.21031876374190359, 0.06978579450161558, 0.0017238873267260808, -0.1885763260762685, -0.13344713348970297, -0.008452240689827755, -0.016222454915587336], [-0.005069762195429953, -0.1493803126130847, 0.17747620283679294, 0.102412915024857, -0.0713037916705535, 0.24880835658617456, -0.0018697108464048968, -0.11312889566570442, 0.06239607801276092, -0.00014568427644387656, -0.17618734949046447, 0.10723012561576899, -0.12451568793515674, 0.00038269798713016394, -0.012363862186764473], [0.09823792236226649, -0.059929236311499025, 0.03361663308312821, 0.2717755328251299, 0.0722233193728926, 0.12222742647629062, 0.05163859788657857, 0.035219422092725126, 0.05629866524533251, -0.03214723262178227, 0.3372386502189949, 0.08820912487313493, 0.12261869161900701, -0.20639176327129521, 0.20975557014874904], [0.1384683526047284, 0.07715127919099127, 0.2225063298691682, 0.1327991943164257, 0.04139068352341752, 0.050684435081632895, 0.18777840596397083, 0.053239414393517516, 0.05509253295719229, 0.035462522027673124, 0.15410009093141683, 0.10452628075433726, 0.0424748167671817, -0.03923387682093912, 0.19516141418338584], [-0.06283310750539645, -0.08984433669366175, -0.274734170577666, -0.06968813911362477, -0.1157006847702615, -0.2114704672709332, -0.3434996057716817, -0.12868323345982668, -0.024729395001743943, -0.07956368441973119, -0.17338695221059094, -0.2916821160217229, -0.24902658524912985, -0.2870171088918747, -0.2712498670751298], [-0.04666035746029388, -0.016624822171637976, 0.0453479377222542, -0.008410559602842302, -0.01648649405854912, -0.17811011137718205, 0.04631236970104995, -0.08844096673061869, -0.24749276225790803, 0.06058007893951611, -0.03884779494004464, 0.08977077008931127, -0.11679679856607467, -0.12317288255137915, 0.011322180989110281], [-0.28569330080015576, -0.1803518600523274, -0.09656811401843779, -0.15897694319167274, -0.22602152079743454, -0.32154921349355725, -0.115501326441256, -0.2023768837100412, -0.22302800452703386, -0.038023072106498794, -0.3941137828005073, -0.1015392542800196, -0.08213842784760823, -0.012705913179045765, -0.08789226507386277], [0.052281578382486385, -0.021411975340985764, -0.014567874541330999, 0.05615601703825313, 0.12083378357735583, 0.0706308584949817, -0.022118072934076454, -0.16807835608005017, -0.08622082710311643, 0.03728436894096097, 0.10596927586519123, 0.10506294662468361, 0.07445404268433362, 0.18999531364637204, -0.04895051942157528], [-0.07010226996231182, -0.00757842043735531, 0.057850448941931455, 0.04805221994101884, -0.19369355061901858, 0.06009395041067917, -0.014248968425177101, 0.047112252461397906, 0.019755870762109412, -0.1125246961357308, 0.035326929104283214, 0.13606733204782376, -0.0282930505754007, 0.11150859163595331, -0.11865499391360601], [0.051967462838466, -0.073241818751596, 0.016134465504017766, 0.10657160112676468, -0.08053122712794049, -0.13019701436874084, 0.09207854052759551, -0.06784286768363079, -0.0373181050803053, 0.042354280536767513, -0.06893188101664664, 0.08961135674856256, -0.14529618835303007, 0.07149397822799972, -0.046429780184011366], [-0.18468429917717985, -0.1532180210450229, -0.1730602286683384, -0.3188587346846193, -0.11603490228283427, -0.17107004920428961, -0.01214230634642842, -0.20417851923048497, -0.07255596582256137, 0.03931465717715654, 0.009799842754969312, -0.27831495500389275, -0.18579050398669272, -0.054381409806966104, -0.07480923992490227], [0.11503080748861177, 0.13073882964415703, 0.0947871358873682, 0.17984565871324376, 0.09847199700139082, 0.01867838646553118, 0.17410718999216443, 0.1909900516432103, 0.19214165143151596, -0.07083637529865965, 0.11966865823222217, 0.09274085898999102, 0.0961667880946041, 0.3609602310609776, 0.1795867961486114], [0.2517598267721718, 0.11734090116813002, 0.030683078159296932, 0.16043907401012145, 0.22777687368291927, 0.046883339138709866, 0.058572244704733004, 0.22921041902483263, -0.0007130729268114451, -0.02614056608728294, 0.008629974609302019, 0.09239087191537405, 0.09587832604763145, 0.11880791375573459, 0.04333332250763253], [-0.17327176251851736, -0.3048385019691033, -0.07209845158902638, 0.03574680631264012, 0.022677248643340295, -0.007109575018331185, -0.23882041184319233, -0.14378427790672577, -0.06331530740030403, -0.044964328144239375, -0.08068741436046248, 0.01265630387384955, -0.15187145847309835, -0.08471079281474236, -0.03801773907798238], [-0.059079201109025224, -0.23542581882831104, -0.16371835908054255, -0.26190304270329645, -0.22339972884568104, -0.32384132324305487, -0.35873876762943446, -0.24240108747909692, -0.23084690212547074, -0.11025287785086056, -0.1679376413132009, -0.11655748894534898, -0.040389277358680566, -0.24296184431975038, -0.1752368083841628], [-0.2402893636423176, 0.011929990429666285, -0.010648902316953897, -0.15610575271129115, -0.05070079951541074, -0.14990901426826786, -0.033925513466296964, -0.06862328350606099, -0.1017205154198988, 0.023756946236015663, -0.09352529715817977, -0.14888547058376045, 0.11809355642266255, -0.30706087276367544, -0.09127709977820925], [0.14662284800396466, 0.18303619236403806, 0.2689099821296111, 0.3169192048256142, 0.2219814761629514, 0.07811562899715661, 0.09299720225764131, 0.13413962313092784, 0.10541127305538608, 0.13362948847102296, 0.20187618809785435, 0.17052575817176305, -0.08775913419072681, 0.3117772595005248, 0.09075820689409213], [0.19824788770026147, 0.30651961146899886, 0.28041578487175356, 0.15733298526839976, 0.007898948211004774, 0.2268881389238427, 0.2299592622015768, 0.17761780592884965, 0.3112687012869744, -0.00569474559696503, 0.01663837794221035, 0.07791304426617118, 0.18982912983774589, 0.01379407169649082, 0.37105017901940557], [0.14641544747356938, 0.026286739009400505, 0.06160706984797328, 0.08768366345686271, 0.08315802204519332, 0.03358102255866804, -0.006029837996377499, 0.14674573786121153, 0.04405736422788727, -0.1794474716753093, 0.1064188884664963, 0.14543196867319372, 0.11364730229164871, 0.19604893550519148, 0.07936743876244322], [0.023527847734694178, 0.11576873407008682, 0.060165540214964834, 0.0576052423715453, 0.11755129810684657, 0.10695465279302314, -0.004127904946567382, 0.07886860710596667, 0.11868636211210225, 0.04773793358153805, -0.048537631696701465, 0.13821400307974346, 0.02185257171175159, 0.035561018741741404, 0.0698038652048481], [0.0990915115354371, -0.0328101906343806, -0.09675338205535622, 0.26149904294536847, 0.0999252269487155, -0.20053699726674384, 0.0945613787635722, -0.047235906452081027, 0.05006890280666401, 0.0031982975593346794, -0.2011781069471031, 0.1468494330732519, 0.08942417580698575, 0.038087825431514115, 0.08459602451196978], [-0.07681232043820625, -0.15412261236775682, -0.1588147347802183, 0.015578878497813009, -0.09508155407123545, -0.02512811101176536, -0.1535682565649008, -0.07736129040239319, -0.06623702200919841, 0.0186228473811766, -0.20634542847958223, -0.03614893381985702, -0.1259372811567738, -0.004123772371924873, -0.08730791083875744], [0.10569683628523872, -0.07382200502136338, 0.11742657101444384, 0.1163722940683175, 0.02553399836275574, 0.26097430889901774, 0.07107650709395713, -0.003812462031626, 0.12316539469392868, -0.17221691264233766, 0.10680331311293827, 0.17816953349541295, -0.0012167840197808445, 0.1366594789421801, 0.10515299317380787]], "b2": [-0.36179043016717566, -0.3925416005768742, -0.3664327300470334, -0.32406126967327425, -0.35086388606315766, -0.3419344563747038, -0.3030623658549102, -0.29376006577115965, -0.3754016227131068, -0.2340570466049545, -0.4137196532078172, -0.3790304003141394, -0.3773223550300236, -0.3610159450668653, -0.29932409714067487]}