{"W1": [[0.21216232250047792, 0.2549606413260147, 0.07661061909509238, -0.036598891067354145, -0.20098391288374645, -0.08802022350898024, -0.06313385599522707, -0.32968857904789034, 0.229125481372883, -0.040085546816744186, -0.285906224262411, 0.09707195480776885, -0.054875421908641996, -0.2272077990277032, 0.14575913821655317, -0.11133619568005372, -0.3105281154026442, 0.1564393034224264, -0.017801666588269024, -0.15602078809984443, -0.2426405322330437, 0.1650987072357344, -0.14701469026162797, -0.1487876679945807, -0.012174409209890024, -0.031169618712870006, -0.031773752972309846, -0.045399011315108394, -0.3413135977881997, 0.11220651185408204, 0.13948258350068368, -0.2442818712361246, -0.04488510359873848, -0.02073433502670079, 0.004353059944822362, -0.159775858523633, 0.05886541848013308, 0.1637269056027844, -0.048332659183836876, 0.2979445541631588, 0.02913428105623136, 0.1391656678048015, 0.0810552494482358, -0.16547172301394236, -0.2171211892737816, 0.24444631116618598, 0.021975612751021632, 0.2734797535315225, -0.023541383224396712, 0.08914148414412697, 0.25774976941765176, 0.20986021352095183, -0.2072953184736947, -0.23880763677414907, 0.14496740261733124, 0.3997370806770272, 0.2541234764015826, -0.3304917227430329, -0.21368065063947986, -0.14871733576922744, -0.13839842773820754, -0.049081767116628955, 0.16979542381060106, -0.0008533710481808548], [0.2840302006952238, 0.14820351148057126, 0.09209901068072056, 0.029772637577036066, -0.13286978393090637, -0.14639262562535166, -0.10879232866880145, -0.10703476588506769, 0.10829836990597713, -0.24860281806474396, -0.12292265390476481, 0.0090093944099793, 0.21591641012933188, -0.1516937422272095, 0.12487532648101829, -0.250447673231991, -0.1591338061960265, 0.3431187419930082, 0.014142671746047037, 0.014059193377008204, -0.27901054636078515, 0.09494843040267988, 0.14713199393170598, -0.20533174553429187, -0.25006045191821036, 0.16007884695809577, -0.0418254337504115, -0.02334073977023172, -0.2897904951803346, 0.1670290414697568, -0.09226468761270597, 0.11336341677703075, -0.012227504856695503, -0.1357557876347105, 0.06416873292447306, -0.23469559693474243, 0.06284907433101045, -0.05467624895473687, -0.07979361491405275, 0.10591723895669111, -0.417523596477871, 0.22956993436186915, -0.09891637591374455, -0.0007116783682912456, -0.2542083877452745, 0.25811673692619275, -0.035250279677359816, 0.32685482329990434, -0.08572813709673802, 0.13789870539697544, -0.0528245496398395, 0.3163733226031224, -0.1442524161790787, -0.10687890530087861, 0.11300829837491293, 0.14760483455879808, 0.0017823672978664812, -0.1971679688024356, -0.22614885423467937, -0.08242174495790891, -0.03796694971450177, 0.036680729167818164, 0.15693601547659455, -0.0768667580107851], [0.1738762362219567, -0.01748195339786145, 0.03568530177641393, -0.06423439345252425, -0.023645735889662265, -0.06571097074099717, -0.15632115055260076, -0.16275257622966335, 0.05578133692105016, -0.12597828721744578, -0.20862143439818034, -0.18958444195674026, -0.022967796393689878, -0.14361351134392147, 0.1382199206454473, 0.01188677648579074, -0.10590677711857392, 0.06658612072657624, 0.15355346776031972, -0.11541376257329229, 0.027365013287577896, 0.23415645880866018, 0.16865375916380348, -0.15893780995856155, -0.39788322683064886, 0.17307442239350906, 0.03682580783282476, -0.026717819717479788, -0.18441748215897455, 0.030299197996879995, -0.03557907440664128, 0.11705614564900402, -0.2389579174461997, -0.1978891083366427, 0.10124154232640722, -0.09821644636443691, -0.0805606095328777, 0.09303120852303076, 0.03966876272355587, 0.2034591993970035, -0.16052968666468373, 0.173734765802946, -0.043361795704499245, -0.1490216643625819, -0.13661035535572, 0.2839950982300718, 0.17336320703748898, 0.004096710620393691, -0.08882091518722553, -0.11023237870199895, 0.09202618489254415, 0.0710614082280176, -0.1925517495234451, -0.19827521065928708, 0.18473126440030715, 0.07619151933132047, 0.1142807768307481, -0.2960320790291307, -0.0933204469337122, -0.09004815797597632, -0.06301447201204628, 0.10600276905422333, 0.021772508869284796, -0.18101801393136194], [0.11496802761138582, -0.06500299174538969, -0.1168949302899451, 0.1088350999544818, -0.06470275521229071, -0.09838656339005225, -0.042738980068518076, -0.2027733958515468, 0.04515268800660046, -0.06891450927273468, 0.0039930349296167554, -0.039472653114458606, 0.11747416595401158, -0.08440121797445568, 0.10459542570867979, -0.13383063141282364, -0.1314564993082806, -0.041153919175991344, -0.07223655731991993, -0.015983092525389892, 0.05975413770577555, 0.0413067204634302, -0.004027683259694763, 0.11138258216832836, -0.06915343526251527, 0.17891552826874138, -0.049538979679769626, -0.03620885729834131, 0.12242013562145604, 0.03628932230957253, 0.060855921542769434, -0.11463963823692386, -0.036158133570581154, -0.0538673420581852, 0.06455063668536183, -0.2272830817886117, 0.011292137782061838, -0.006783125118638292, -0.02844663084254355, 0.14635205935502343, 0.06498488752683365, -0.13122187494272583, -0.047823658650986596, -0.1302403296339062, -0.05588673050042316, 0.1704242739001733, 0.014979527684029308, 0.08735158656947123, -0.09453012338155592, -0.0695124069021251, -0.04083798466972964, 0.29764869871979033, -0.08487977925358395, 0.004685699998584024, -0.023168864344756707, 0.1479995528351346, 0.1382264367043936, -0.24143348960631825, -0.09414335768162424, -0.15472900579818788, -0.1243517092650832, -0.016627868710570762, 0.035676247829098194, -0.14049669969755085], [0.2807076929538625, 0.010869172830457019, -0.17296162051202071, -0.0924431146679083, -0.2145222018438877, -0.059690543650495684, -0.04912432698894835, -0.2266814667363389, 0.17276594064304093, -0.2636176609763439, -0.05404987063149862, 0.1292566498998885, 0.02189331738238996, -0.2824801010699899, 0.18510126536969815, -0.3523241799081805, -0.11234668890918018, 0.2077503979537834, 0.07180390477587999, -0.13261784699892984, -0.35145574911410815, 0.3842627594289246, 0.07680832765462504, -0.11559392891847566, -0.3224314617651205, 0.31275185289507534, 0.1753518524102818, 0.1455913702304549, -0.24537117273150952, 0.04399234473600254, 0.16083478828232858, 0.04343065668679196, -0.3083822524215237, -0.2739661835341255, 0.14721624028777683, -0.19911660137523285, 0.07344193074885937, -0.0265070597132333, -0.09819172975433384, 0.1764888800434446, -0.5248078408167385, 0.09868578648637924, -0.011725416595760626, -0.15467235641487276, -0.03267447144715326, 0.1421152674799356, 0.16217831432981913, 0.258842072869569, -0.07717972788025648, -0.1232618038032477, -0.03660752470907271, 0.16717351400571132, -0.28478433115230506, -0.22076261341677855, 0.13396111616348372, 0.36849221192878967, 0.13628897975843318, -0.1800227379253759, -0.363890236106441, -0.11927127374631039, -0.13320107790017616, -0.10967030519416326, 0.14506962732604736, -0.1863221633080618]], "b1": [0.3002696925116154, 0.23347824198618802, -0.018975218503352247, -0.030801542329002462, -0.271535962465209, -0.11576800830551708, -0.14894101099132767, -0.2170850343588481, 0.2769420143615223, -0.3576854968543114, -0.2928721096457519, 0.048291183804408506, -0.012319881320645513, -0.3605642211743217, 0.21665655060157776, -0.34091146676561507, -0.3096314916349925, 0.23907924357544666, -0.032501918397820594, -0.10962231493852957, -0.2909326759308106, 0.32299452556993496, 0.11091545528968907, -0.22320170779137904, -0.35013264398725596, 0.2573246071940585, 0.02719918651469351, 0.01939973479294861, -0.36899352523580925, 0.062124385826004186, 0.07675298450932072, -0.07554956530249154, -0.17152639012164297, -0.28720709308996234, -0.001317838660465466, -0.22373917022185874, -0.03116991154850057, 0.05493172197719788, -0.05868409277997074, 0.23145537211313844, -0.3857224284122474, 0.20632446561503298, 0.01719487509659354, -0.1750664567779655, -0.20038104890530295, 0.3695028945071165, 0.09094014597369295, 0.3588321843462463, -0.05286988939062358, 0.0017343789282758598, -0.008626300448576502, 0.24198159108318482, -0.2511719798867967, -0.1599793335677494, 0.20175753746084776, 0.3591956298486602, 0.1820826434549445, -0.27428106927309087, -0.33468935209321315, -0.1648057422043034, -0.12590660815870883, -0.07176794614969358, 0.19140998820131422, -0.1709647692270568], "W2": [[-0.21028247404348532, -0.3775132360273189, -0.24613441347731024, -0.1174149926570547, -0.0060945071852056875, -0.08901262573689783, -0.05425709233875717, -0.038289476398990656, -0.14691891045578043, -0.12635727149743659, -0.17289399827485663, -0.25914755246033533, -0.26914759449344117, -0.08694000810038986, -0.13985239661076077], [-0.10389093525482881, -0.10368098538352738, -0.06746792445927655, -0.18776187151386867, -0.08811976628963372, -0.04339318792699191, -0.1095782079786124, -0.14292556723636834, -0.0008940506045768911, -0.021551081169823978, -0.056649004159274326, 0.13664282992952553, -0.08502065100177465, -0.4157766797217208, -0.004973173899400796], [0.11698527811382355, 0.11372384701692899, -0.06100654366126643, 0.13646922759494085, 0.03637787863534881, -0.07737577461467354, 0.0824777586232312, -0.08893754771704121, 0.059221615337057804, -0.048605869814600175, -0.10633395607114504, -0.06247159338885253, 0.013465154645616845, 0.005707604735882256, 0.012678955944322013], [0.06985555188316946, 0.12153123123399835, 0.05706796584736924, 0.03730836298212522, 0.07600125553271987, 0.06734707980743201, -0.005762713318297117, -0.06305788076981816, -0.18496814299453737, -0.06636477585444522, -0.00028621612710415993, 0.03176966427250167, -0.11120919826076066, 0.0054304887453695185, 0.21048959670274586], [0.04568014711414793, 0.3016846228754753, 0.1276932082506567, 0.10328296174948368, 0.14218419586287956, 0.20002001052090962, 0.17279967471294239, 0.24145013595624776, 0.11047384419541928, -0.0033621338161145507, -0.05770051473126737, 0.06061764072044274, 0.09659440029122636, 0.19836231209667474, 0.0349115703352254], [0.05465648572653106, -0.041738459008905285, 0.029793847012041564, -0.04953845207843576, 0.0967856926702111, -0.05046665311814605, 0.1575739134486201, 0.08858572040405019, 0.08802511817867914, 0.036123565538597545, 0.32533852120512746, 0.05636940610312967, -0.018514517686737158, -0.013059065823359861, 0.06617894186815666], [-0.08478036412117405, 0.12147513176727644, -0.10968981451853678, 0.055939794330700725, 0.18123185390254593, -0.04373431902041884, 0.07123277264606195, 0.2277807288824272, -0.0013317111040985566, 0.054381596376793434, 0.06989125267551989, 0.1538414249767192, 0.01727852581456757, 0.21069983930434302, 0.03776207205756122], [0.10703375117590931, -0.0031347558704400776, 0.2999193785787709, 0.10612323632198774, 0.21282807911717624, 0.1540783838637876, 0.2129065045326684, 0.0680937607125948, 0.030150046751140563, -0.02360429416429184, 0.18418405602977178, 0.018486019415408766, 0.22140688566776856, 0.1315579621429973, 0.20369706841085056], [0.016037233045364432, -0.09418332901852983, -0.2609196899806149, -0.09303137832881421, -0.09595272231056541, -0.17351753561293853, -0.11350521030956869, -0.10227378943764463, -0.09251657301195795, -0.10278673808531934, -0.07579122853868878, -0.1287280144818584, -0.03721538778340518, -0.2386393950889246, -0.18589411936158826], [0.17318074143541065, -0.04969862944205531, 0.2235399165164537, 0.056448702270820786, -0.0968125206143633, 0.07929509518179151, 0.2513425135617759, 0.3166427772290369, 0.26511328272352364, 0.2128553569577661, 0.15286401171561753, 0.04340209926458619, 0.2530293263892635, 0.19341762560778855, 0.2658193791416803], [-0.006812352169388307, 0.11198296848759569, 0.08548988521857931, 0.11958181198618215, 0.1853668386643747, 0.048228189363727116, 0.04469960553038979, 0.021317904572186856, -0.032445228032027464, 0.2808238741402388, 0.2739181592409297, 0.18456460375612851, 0.26209598242554843, 0.13566765613464202, 0.13557468805484918], [-0.049124821903712486, -0.11001346915153562, 0.08877224465448008, -0.035570021263741314, -0.028718509105429835, 0.02144869318774684, 0.1748138299506813, 0.01872972483777425, -0.06229947716488389, -0.03529781890426518, -0.14056216084791792, -0.09209480410773316, -0.015722071305674993, 0.039828073787090225, 0.00100274755714016], [-0.0033986473710775713, 0.01481517741345568, -0.07902839701016126, 0.03990531592744632, -0.07296414857304388, 0.1323102594941173, -0.03810200023000265, -0.060495041996762235, 0.03644480398159081, -0.24889230476831586, 0.13824781654232843, 0.13199500535048445, 0.003338832952349363, -0.12132541101418898, -0.19604817540874242], [-0.0023613015747781974, 0.2089449533956109, 0.06141078474443168, 0.09113090543444227, 0.24178640753924358, 0.2169066531003135, 0.16162521846072764, 0.20630590914674873, 0.24166649810326996, 0.3126001923221594, 0.18843300703181848, 0.10043348101766002, 0.21129144597129132, 0.0964645500144983, 0.22002766603607915], [-0.17631213933810616, -0.1627426801478267, -0.1866127803382993, -0.176330273643253, -0.1259982758000492, -0.12291791270619892, -0.02830897171240914, -0.17007613009316994, -0.07191897167033767, 0.031035232546728606, -0.01567816558471264, -0.12019209452923617, -0.017952746965165307, -0.15221974765243879, -0.016739207685231166], [0.27714037932376384, 0.1853007023274197, 0.1383803231843392, 0.09687471558966212, 0.09650429920010245, 0.13965014783937035, 0.20257628632050392, 0.13347844547579366, 0.0679919744716564, 0.17199756307462663, -0.021398854754512968, 0.0674573327517608, 0.3316925645713271, 0.30621848913361155, 0.1857208788048901], [-0.026457039372876252, 0.1503509256703829, 0.06079796610340204, 0.23788963549680447, 0.3404692462598269, 0.14132283575339696, -0.0008821463665653489, 0.13479269260359675, 0.21856608959158744, 0.04669027695438239, 0.09171191018507643, 0.1640222941247841, 0.2581873249402658, 0.15329480752630428, 0.07451527313242297], [-0.12666861239421637, 0.018378125342293116, -0.054574816191307794, -0.1866704734607334, -0.174756534575157, -0.21293121426359357, -0.16605837487204847, 0.051321540907586526, -0.1322750611177983, -0.1071940383238605, -0.20161075737252113, -0.019977396474239, -0.0932145977332692, -0.2317983669628443, -0.16775749579901125], [-0.023332527572503054, 0.02833611055413297, 0.039905151217410006, -0.04489124700768045, 0.10717818929963331, -0.07617177705887818, 0.07555654299982434, 0.023347179757166832, -0.017497810695105667, -0.08362860006509863, -0.3404014042237791, 0.10874832638396843, -0.07727341833332325, 0.026402356016044376, 0.2841004304860454], [0.15302176325748224, 0.08283159004222414, 0.10022700816275072, 0.025804448550371954, -0.008157782249888647, -0.03543872345689958, 0.1045692010830169, -0.02892225265876157, 0.10003067166874265, -0.1313914105704137, 0.15916640442413166, -0.0461998442776532, 0.05627659084794518, 0.07639769842460777, 0.16747988156440463], [0.1344091266229514, 0.2812971776494685, 0.09943435289827518, 0.2178937412389424, -0.012385713722972523, 0.07098752742440712, 0.13332316494677854, 0.18907503455737787, 0.2458603902466883, 0.09161677737148077, 0.11920684124573173, 0.21126703818358122, 0.28571117670417373, 0.027666137174072573, 0.0853381754397519], [-0.21664417272828848, -0.11904942882934128, -0.22189079312540613, -0.046943971801646424, -0.16992050677525614, -0.18734920613554493, -0.3502644963401081, -0.14398979642731588, -0.32160977092238147, -0.037725631420404485, -0.18553745478111575, 0.04086886094144162, -0.15817653707796264, -0.12942946565008934, -0.153736212281488], [-0.09836313726046647, -0.02683130507216205, -0.05578332256665079, -0.09524758228607119, -0.05408742660489969, 0.016008843556670906, 0.09204886429192607, 0.10853137898334997, -0.16260668114805452, 0.08499235528596032, -0.0024509970236922113, -0.249584196675161, 0.06097893337921292, -0.027154490745581367, -0.1244868285117105], [0.08945682944923933, 0.0423477105670123, -0.03394480680156564, 0.1436505147012829, 0.03781466920225419, 0.11692635905684721, 0.14312510008058368, 0.03478446892244774, 0.06211954043853808, 0.050336663659089426, 0.11255729604957151, 0.11991564947488281, 0.09167079217534217, 0.1512979975588873, 0.3460717714103169], [0.17399388250475586, 0.09567639182226072, 0.23519857716739315, -0.0168426193798978, 0.41429661471982787, 0.07127660049719234, 0.09650100145844015, 0.21095100818889065, 0.10305798752123778, 0.14520126645095038, 0.49604305229329193, 0.37140074612540924, -0.004181452125680005, -0.002819995121182018, 0.11993837396173972], [0.003401904578464952, 0.005074601347317387, -0.02513060134529263, -0.2721407153883054, -0.06943205587753158, -0.15250793650163844, -0.10162930916269068, -0.17666373905416544, -0.120856350896839, -0.2996109773063982, -0.13049997178259498, -0.1874947570356569, -0.06925995667746106, -0.08551124539505553, -0.21291402366638448], [-0.07909356182596718, 0.04450725554612552, 0.04053127918750905, 0.09613808435670351, 0.08018071926988818, -0.04841397731928378, -0.40480450241157506, 0.2322615318630213, -0.09045514885556197, -0.060893992536384604, 0.07932387002473759, -0.1670959158031886, -0.047895824807313234, 0.08338952199217414, -0.04520257249417833], [0.033469290097332745, 0.05202847232522879, 0.011294732355282385, 0.00773069561809494, 0.13858413931247682, 0.05617941840228494, -0.3285495804065409, -0.06102505210057713, 0.02817527056786044, -0.010184707157891621, 0.04993672748855842, -0.19739027240936693, 0.008721193688566676, -0.05201649472830135, 0.071952680268643], [0.15821963833035327, 0.09792916678874534, 0.1143744377369172, 0.28085808541698354, 0.3492355081799771, 0.12441719371996796, 0.09222739483022416, 0.42389991632925444, 0.14277312250302568, 0.027023378644833573, 0.15273636755662856, 0.30367483794754296, 0.19533551491620268, 0.3076010310628835, -0.002428185094790811], [-0.10727733549356247, 0.14109362514103324, -0.17477477688353713, 0.0033493346363473054, -0.12508017314310532, -0.11056204387001532, 0.010195676876988434, 0.06038944004595597, 0.1523273227798388, -0.0527342905115504, -0.09955113229973361, -0.2470540451784448, -0.04185003683294208, 0.014651318487043827, -0.017882646823099098], [-0.1233874063862563, -0.015156766359516006, -0.07125660152104842, -0.07974186148744918, -0.02008069637494436, -0.10562866214190818, 0.11154416669278745, 0.06439184878383918, -0.029049951661364676, 0.03743837929917951, 0.11077705436342461, 0.043794466946037336, -0.0633319009695008, -0.23070623735314713, -0.1850649068599645], [0.1476642175556405, 0.31467325210020647, -0.14091763251640405, -0.04038334820247427, -0.08354636308964432, 0.1360839822496011, 0.05714368079449269, 0.014980434059264516, -0.07113191133640089, -0.05797070778320673, 0.011991960426499382, 0.05219891714964931, -0.03575249234736619, -0.006622345920120399, -0.004245494203172153], [0.033136290779144734, -0.025248114798536475, 0.1230893339405673, 0.3228631410739384, 0.1418355573785982, 0.01047153166226901, 0.07911767193189141, 0.05327229356812153, 0.19414679841704616, 0.06673274118081574, 0.13232176270497725, 0.09670955133316722, 0.02492790848887665, 0.03457437154591099, 0.055577720454692635], [0.1730485560273493, 0.24616660092280018, 0.18650132166482628, -0.12605281857106962, 0.04346816262848341, 0.12238746456486009, 0.13303161851190817, 0.2193052533452011, 0.2529310534202435, 0.01824892192101884, 0.06794183356619128, 0.1395996953886872, 0.19267035208537756, 0.015363198821844854, 0.11990288306398485], [0.11060973301802733, 0.07529424509588856, 0.04751150362402918, -0.15650690049019503, -0.03997584595080641, 0.013385860352229634, -0.14954054949362003, 0.0033842527571049308, 0.0030863611196283542, 0.12217866065381924, -0.19232433061667342, 0.04916418194867914, -0.06652646396500507, -0.17044126596137982, 0.028112648273612727], [0.25269813556488124, 0.1945808014062408, 0.10021124565182513, 0.20807311848149118, 0.1449753413533024, 0.15571908414992083, 0.07498567532417165, -0.04162991792376478, 0.22383854760032648, -0.0013832576103335848, 0.05680883996492676, 0.11850127050039064, 0.11873291827046303, 0.13762303533865752, -0.05338701397275919], [-0.10674114719203984, -0.01422464434672653, -0.018719008166852527, -0.12696366166766623, -0.09147846527174604, 0.060717220249279474, 0.02070871462177385, 0.05226942710032391, 0.15341277876083664, -0.10216480661504196, 0.05814336171211285, 0.1043060720498601, -0.018058286341599, -0.0164943801461846, -0.07034444193467912], [-0.013127214439570248, -0.004650105641817496, 0.0905579273376483, -0.05708810464159477, -0.15001162922553615, -0.018910652003028307, -0.05888558029505234, -0.14130286527319497, -0.24788821322759066, 0.16876327573507433, 0.024251576467846907, -0.08886033661423721, 0.07686719943835517, 0.04427405753544456, 0.04719462235920118], [0.09032469209892693, -0.09508289277332614, 0.19468461563819991, -0.06421982828634397, -0.045124836396778556, -0.1265728122798484, 0.09933024175182026, 0.12559247238318236, 0.060244682392212964, -0.19645154163341233, 0.09795914920525779, 0.1855371148302594, 0.31900028172704603, -0.10266919443749145, -0.2244065465798102], [-0.22711091870623676, -0.21185131735119012, -0.15341226031462699, 0.001996351160964815, -0.22704842234970796, -0.2127922646723876, -0.10572218418990335, -0.09473846602591197, -0.06921935673265535, -0.001704543116910686, -0.26967245723374667, -0.112246772500776, -0.015379225132349676, -0.04851906219295106, -0.045516459937969656], [0.21748174754350466, 0.28896113728887285, 0.1063206723831244, 0.1784366332016423, 0.16895343111476943, 0.2581257703640066, 0.2343314939937111, 0.2706664797115286, 0.18252997322784653, 0.10653226193306994, -0.08877867873768218, 0.22826042270622776, 0.3875996811207984, 0.09901173672979123, 0.4141415266219031], [-0.13959061680631715, -0.05391664793014163, -0.10723234125125083, -0.0634085674755565, -0.1408558136829326, -0.07215794061175992, -0.1697217830898258, -0.10618532685693957, -0.21096273596391446, 0.05675728149112166, 0.001006200616497408, -0.18927331775777562, -0.133625897935332, -0.009111716225880874, -0.014584944907050491], [-0.005102688823316286, -0.14941097491334807, 0.17743056643445165, 0.10237244832950376, -0.07134385631713781, 0.24877080049832287, -0.001907752499983007, -0.1131651897725936, 0.062360634159477325, -0.000299298651993639, -0.17622917342424793, 0.10718789363054362, -0.12456233101086243, 0.00034536187005431156, -0.012903974933369698], [0.0987248458114024, -0.05935463879464791, 0.034258420437174426, 0.27238929617703717, 0.07281435089904491, 0.12284257060334616, 0.05220562675031991, 0.035773069182382655, 0.05685411164372479, -0.021289521980323613, 0.3378596077075147, 0.08881450717894834, 0.12278568604115993, -0.2058211467414047, 0.20897341978478293], [0.13901438434257207, 0.07781905612163512, 0.22324015628388702, 0.13350568913395566, 0.0420685284384232, 0.051391902175322336, 0.1884310788725705, 0.053876019614998764, 0.05573493580694669, 0.048384424760248616, 0.1548152420690732, 0.1052207744900401, 0.042674354571447186, -0.03857723588612553, 0.19347195559058855], [-0.06367623142550861, -0.09085770634604848, -0.2758586675193553, -0.07076724610437103, -0.11673823928399703, -0.21255050038895631, -0.34449647493977237, -0.1296558787482826, -0.025708144698051463, -0.09870203550023265, -0.17448002673867252, -0.2927446910878363, -0.24931857473251853, -0.2880201645225666, -0.2693571601581057], [-0.04693720880884315, -0.01694460527383799, 0.04499266612060279, -0.008749769331960465, -0.016813824065168764, -0.1784528068438811, 0.04599973426028654, -0.0887475709888465, -0.24779861663192074, 0.0543279001837272, -0.03918978320524639, 0.08943658451988379, -0.116855938114119, -0.12348865610185727, 0.01173131271799242], [-0.28658222233047814, -0.18142387497686654, -0.0977616793901845, -0.160122159367024, -0.22712287406730317, -0.32269307446852413, -0.11655942842169217, -0.20340855162123309, -0.224067005511817, -0.05794350744290989, -0.39527588322811835, -0.10266754508822594, -0.08245565909027879, -0.013770272951135424, -0.08599540387988987], [0.05246744681364157, -0.021185756123590433, -0.01432439724602039, 0.056391367246700824, 0.12105947873107635, 0.07086909653982372, -0.021901125936171693, -0.1678658771022511, -0.08600683959929963, 0.04192386954148761, 0.10620657690725552, 0.10529327338936253, 0.07449214515368814, 0.19021433990127595, -0.04973197539758796], [-0.07010615930311376, -0.007600561471447421, 0.05783075430462379, 0.04803031693198356, -0.19371266696861467, 0.060074173176215155, -0.014269705106123506, 0.047093462222136395, 0.01973343024526197, -0.11293379102438846, 0.03530349251041861, 0.13604668006609508, -0.02833761322402413, 0.11148868006324658, -0.11816372578971732], [0.05184688069041547, -0.07338193043789602, 0.01597271367653491, 0.10641911787571443, -0.08067795732098235, -0.130347923347667, 0.09193691556800787, -0.06798045590497935, -0.03745581476431729, 0.039653950086660165, -0.06908505338348382, 0.08945929608442638, -0.1453892699697411, 0.07135250601503153, -0.046512204396262524], [-0.18536164596551186, -0.15404394639998592, -0.1739714832224553, -0.3197352831866292, -0.1168767131237451, -0.1719467618994199, -0.012952194501646344, -0.20496837028547332, -0.07335247558935297, 0.02357317819764341, 0.008911498265149094, -0.27917709961484594, -0.18601646261189086, -0.05519615629432067, -0.07290856831255868], [0.11575691736229311, 0.13160597389842502, 0.09574927288366185, 0.18076828186385974, 0.09935966305125714, 0.019603558361165962, 0.17495900345026166, 0.1918219866975847, 0.19297771087370846, -0.05435217418309826, 0.12060279705100493, 0.09364939184140933, 0.09639794908844627, 0.36181810693792715, 0.1780197376604087], [0.25233979921520316, 0.11803345815001426, 0.03144940436543116, 0.16117390587857358, 0.2284836121787981, 0.04762123100288071, 0.05925052436735805, 0.22987324128818207, -4.719029509194395e-05, -0.012749388966932658, 0.009372943525570138, 0.09311432713198824, 0.09606582189197883, 0.11949126430254767, 0.042004415752316164], [-0.17380846070695455, -0.30548035676742347, -0.07280799378291074, 0.035065835109412455, 0.022022455033009543, -0.0077933552930612784, -0.23944898355514588, -0.14439837833120814, -0.06393261986157883, -0.05730962955517847, -0.081376273058418, 0.011986177236964725, -0.15204649127831804, -0.08534399929290372, -0.03673206284961269], [-0.06003806421941327, -0.23656842761077396, -0.1649966534915692, -0.2631270499592685, -0.22457791079671577, -0.32506459039504587, -0.3598697779655631, -0.24350406171628017, -0.23195592444701446, -0.1313669398211886, -0.16917914480834426, -0.11776472068404747, -0.04074084367635565, -0.24409944580240855, -0.17360999984227926], [-0.24081946875718732, 0.011302628568762966, -0.01135209562784369, -0.15677789882079007, -0.05134789011226639, -0.15058109707782363, -0.03454688387069451, -0.0692293207271147, -0.10232908616660873, 0.012023390582194848, -0.09420580792046314, -0.1495490080305295, 0.11788807157334295, -0.30768555400348235, -0.09049969473238866], [0.14739792992378695, 0.18396623871491813, 0.26994070533965314, 0.31790809584199864, 0.2229321471733986, 0.0791063298208275, 0.09391073793714863, 0.13503121986899033, 0.10630813632487802, 0.15138195812069974, 0.2028768907858045, 0.1714994939926242, -0.08749022838447981, 0.31269652043711815, 0.08898629616427568], [0.19912104681554488, 0.30756492760365256, 0.2815792464834756, 0.15844861888804154, 0.008972492398773345, 0.2280046224344914, 0.23098955286141254, 0.17862329026864607, 0.3122798947904705, 0.013841008296862477, 0.01776964009550462, 0.07901209629684812, 0.19011683564294177, 0.014831216505882632, 0.3692730248446354], [0.1468759912928184, 0.026839344260368526, 0.062220124615321344, 0.08827177638678578, 0.08372347107981949, 0.034170004877188555, -0.005486448018714102, 0.14727594457011536, 0.04459080601329359, -0.16893302032650306, 0.10701434252412989, 0.14601119304640223, 0.11380813819371695, 0.1965956199139877, 0.07832615412842266], [0.02391172966559929, 0.11622530357031663, 0.06067379401857717, 0.058092082933679866, 0.11801975845446382, 0.10744248250850041, -0.0036781171575283426, 0.07930762755764369, 0.11912748126017163, 0.05638528326537363, -0.04804478848986087, 0.13869384783874417, 0.021984552834877696, 0.036013609737829466, 0.06905597527438107], [0.09928077622587102, -0.03258976427247467, -0.09649936211627264, 0.261740481071319, 0.10015860233660487, -0.2002975487268575, 0.09478469682297752, -0.04701854124134289, 0.050286854781995585, 0.0069058056612805166, -0.2009318902215569, 0.1470888849302969, 0.08950006742751442, 0.03831212984256271, 0.0846464862785848], [-0.07734827348845606, -0.15476980437195847, -0.15953194618253844, 0.014890049266272791, -0.0957436041606337, -0.025817492014656444, -0.15420450210135153, -0.07798194594226818, -0.06686226983010557, 0.0063959776516390315, -0.2070437573471085, -0.03682705587702634, -0.12612757918225212, -0.004764048043089799, -0.08599551414020314], [0.10613199961572703, -0.07330383865800895, 0.11799652098314335, 0.11691972965389516, 0.026060712537948574, 0.2615257910730188, 0.07158143973811397, -0.0033183754078475298, 0.12366129494529508, -0.16212427521344436, 0.10735663400632431, 0.17870753298977274, -0.001112961227110154, 0.13716879754203878, 0.10402996421416146]], "b2": [-0.3633829205945538, -0.3944257962716546, -0.3685597636611931, -0.32609553168073885, -0.35282381095500287, -0.3439619104935112, -0.3049432089513613, -0.29559187352014293, -0.3772435325239934, -0.26744998604484493, -0.41578773662741403, -0.3810392364969214, -0.3779643818768865, -0.3629057641305837, -0.2975052286278881]}