{"W1": [[0.21671106485500227, 0.25668658468568334, 0.07670144783402608, -0.03676537314951817, -0.2038484290285328, -0.08930252008714104, -0.06506881807916594, -0.3329511645540378, 0.23252759822978117, -0.044339939947589294, -0.28923816134079194, 0.09768782737216815, -0.0533521408681924, -0.23185419844858055, 0.14883896215810088, -0.11638135242629358, -0.3145881296847702, 0.15883183349416508, -0.017209988567252494, -0.15638158444537364, -0.24439523931324675, 0.167722495274858, -0.1461902899928963, -0.150022832091875, -0.016174482209764543, -0.025719971913926266, -0.03124069196821598, -0.04505525666542855, -0.34249472221151356, 0.11424042554742637, 0.1406347166457582, -0.24417756376115055, -0.04765703312847768, -0.023155008910891603, 0.004183465151344405, -0.16258097766405225, 0.060030651471235416, 0.16313983393742146, -0.047502017753504995, 0.3012329506337274, 0.02738471105024972, 0.139954617205076, 0.08017379143033491, -0.16761586975708898, -0.22006126324113842, 0.24985712869991333, 0.022605646088481653, 0.2775275676285103, -0.025016027130464222, 0.08955920055968604, 0.2574536105731117, 0.21204334336770173, -0.21019915396571656, -0.2407370814100272, 0.14662094306835516, 0.4049595491294115, 0.25701080213444105, -0.3361312307522743, -0.217297017568683, -0.14967937768025943, -0.1405467190664367, -0.050109057661528934, 0.17158843784760058, -0.002266906816754502], [0.2844259312547828, 0.14837234171886984, 0.09212018711484286, 0.02979769125485178, -0.13311754165474501, -0.14650970992972281, -0.10896675859118209, -0.10728544044891909, 0.10860281488299664, -0.24898854916119348, -0.12327264546754993, 0.00907088197468414, 0.21609599494803394, -0.1521371992992989, 0.1251222496777471, -0.2508814184075105, -0.15947244433041596, 0.3433559201285031, 0.014243013318284863, 0.014064001482737424, -0.2792055022829448, 0.09519412419835539, 0.14716396621636185, -0.20544720933658508, -0.2504250678488254, 0.16055293012005484, -0.04176535973465495, -0.02330198790824034, -0.28993951533335743, 0.16720282798069797, -0.09219727121996889, 0.11338065975417187, -0.012473326740876246, -0.1359672996818435, 0.06413204345831595, -0.23492669504636732, 0.06295960774931779, -0.05475665739945758, -0.07970443596541502, 0.10618958210763484, -0.41770824074582913, 0.2296438100753163, -0.09897980829206747, -0.0008698186067552124, -0.25445448983845365, 0.2585593161172566, -0.035202259208025645, 0.3272155699512925, -0.08586234609295566, 0.13795399925292604, -0.05285588423575977, 0.3165498185291399, -0.14448950065702557, -0.10705297996760293, 0.1131759816642195, 0.14806675439738715, 0.0020055560998795477, -0.19761551901404073, -0.22645465766022932, -0.0824634691774523, -0.03815001564597025, 0.03660737199198674, 0.15708954849742052, -0.07694214248195388], [0.1775748687099768, -0.016025896077719134, 0.03569313633577417, -0.06445183712716851, -0.02607513366383576, -0.06670678934330483, -0.15783536070603615, -0.1653836248542079, 0.05859352660924745, -0.12930856217786768, -0.21122682751405697, -0.18913924983571753, -0.021966370815025036, -0.14730714184394067, 0.1407983904895363, 0.007871018773241785, -0.10921860939171563, 0.06852032671273205, 0.15389439480420036, -0.11589902409542202, 0.025963632624410534, 0.23636658382135836, 0.1694259057881215, -0.15991050850287986, -0.40108681733909124, 0.17708527687837988, 0.03715260182289485, -0.02649357440759776, -0.18535587659595998, 0.031881460755338126, -0.03454801883581851, 0.11706597377846183, -0.24117325234673603, -0.19985720967152132, 0.10128417020531773, -0.10038292663935927, -0.07973171201531262, 0.09275432834485721, 0.04014924302719098, 0.2061618938976068, -0.16183733337442574, 0.17437809658199396, -0.04408264599961212, -0.15079271753727455, -0.1390063037140497, 0.28836915850913014, 0.1739428583709311, 0.007552091632275177, -0.08996630416126417, -0.11002420335891598, 0.0918342558653961, 0.07269318260266609, -0.19510368329242858, -0.1999254787154834, 0.18603268069223183, 0.08066961369885904, 0.11663807744268276, -0.30022927997173293, -0.09644687095978331, -0.09102977769810375, -0.06466692349326143, 0.10519236124831254, 0.023276053505824432, -0.1823879912141402], [0.06999883428454981, -0.08253668191926833, -0.11640690221788569, 0.11261648284709669, -0.034786356480612686, -0.08648432354127154, -0.024657748958922494, -0.16995058374563446, 0.011143300904293316, -0.029195877793068727, 0.033996314771583463, -0.04450159108444383, 0.1076327488480647, -0.040609541594625216, 0.0725232319625465, -0.08533725796313975, -0.09086300582454485, -0.06410159916011604, -0.07490246775959687, -0.008509816543618378, 0.07613491421081293, 0.0142645220536235, -0.014693152722421545, 0.12312362660220152, -0.03038798256304132, 0.1315831140032539, -0.05285796847033739, -0.03865553908378923, 0.13346540987122366, 0.01731942955914295, 0.04739808866842861, -0.11418300001630635, -0.009382699512493516, -0.02976319151490845, 0.06273885180863337, -0.20073153185261045, 0.0020719315022411115, -0.005072457355210742, -0.03271265362369163, 0.11299104307400229, 0.08050079669087132, -0.13936271745255485, -0.03885014840859638, -0.10793896925644131, -0.026588349965891413, 0.11669777329719028, 0.007402891786431322, 0.045066965570348554, -0.08095447631683513, -0.07097525115069982, -0.03889501236750022, 0.2774950242248855, -0.05286251005432654, 0.025039512568342533, -0.038516142652352196, 0.09314961882898194, 0.10890423413776569, -0.19036214612330832, -0.05536266200340096, -0.14095476990398687, -0.10449952675636606, -0.006562829492346806, 0.017104814467200205, -0.12191279516163872], [0.2890435282473813, 0.014148101727866966, -0.17296707438442022, -0.09300495928039161, -0.21999740704175696, -0.06195083938215588, -0.05253240139622365, -0.23266414590922208, 0.1790981291455834, -0.27113501777752264, -0.059900336302977766, 0.13024669471587674, 0.024086962584060675, -0.29079779892866575, 0.1909157604623168, -0.36135784393688897, -0.11980727586644813, 0.21213031036838234, 0.0724792438455178, -0.13379031807207722, -0.35464855744997315, 0.38928759258541795, 0.07860612663793468, -0.11786697514557075, -0.3296901919347358, 0.32178298950558937, 0.17608505021247545, 0.14608479158594098, -0.2475628657753214, 0.047538766625791366, 0.1631995735324765, 0.043424858218301235, -0.31337769017578404, -0.27843831927352214, 0.14735458938442086, -0.20402563925799927, 0.07527499549172645, -0.027068545245480406, -0.09715493233426956, 0.18259407428705918, -0.5278756542166363, 0.10019387092090842, -0.013335541935915223, -0.15871543703855734, -0.0380925981879645, 0.15199386103109852, 0.1635073470184335, 0.26661562652614035, -0.07973287800635856, -0.1228112949270273, -0.03700796839507423, 0.1709266977570024, -0.29056367364733127, -0.22450223914325357, 0.13690817979762307, 0.378556330074417, 0.14162009079654533, -0.18953114691590958, -0.3709699081833429, -0.12155680112058581, -0.1369280062547602, -0.11151020461360828, 0.1484823002721981, -0.1894755230532612]], "b1": [0.31012383254829345, 0.23742480638218846, -0.0189245550240727, -0.03137676170034289, -0.2779714209109968, -0.11850047951646749, -0.1530091360910614, -0.22406186495035524, 0.2844718596198999, -0.3667114428898314, -0.30009475394237056, 0.04950008760488369, -0.009449086008100217, -0.3706094774773693, 0.22340251055297886, -0.35158164248896445, -0.3183708046283261, 0.24444064107464922, -0.03159476400029207, -0.11089628068206256, -0.2949578764022343, 0.3290467997560858, 0.11290338372734945, -0.22607110260365795, -0.3588276341015489, 0.268107833590366, 0.02816532846078274, 0.020006959696477093, -0.37187382901380156, 0.06629663171045541, 0.07944753253955247, -0.07552077798389568, -0.17746244498764838, -0.2925394696135061, -0.0012751086312060937, -0.2295048037417741, -0.028945221436660878, 0.0541222769378767, -0.0573111180309076, 0.23860308891864593, -0.3896831078123262, 0.20818169103563894, 0.015377899472325108, -0.17978082750985075, -0.20677985765439805, 0.3810786919778539, 0.09247693715552545, 0.3680073868940428, -0.05588390261839933, 0.0024066901551998802, -0.009095742855555405, 0.24644876859138728, -0.25792197017335844, -0.16442897812225157, 0.20538004293040518, 0.37104808187498256, 0.18826755848574986, -0.2854343638932244, -0.34303499891513656, -0.16732909230756543, -0.13032401492548115, -0.07390289893076876, 0.19545326042963163, -0.17448171668132625], "W2": [[-0.21159524273616653, -0.37835145717720153, -0.2478888428162385, -0.1194819206586927, -0.007253657976325041, -0.09047223139748395, -0.05491419384820504, -0.039058701455106794, -0.1476665246312314, -0.13201929361616213, -0.17380414483750875, -0.26062733433988416, -0.2698009745323129, -0.08838752181412116, -0.14041778112688233], [-0.1067205042467338, -0.1054582779087038, -0.07135945108831498, -0.1923627569237221, -0.09067516651122146, -0.04661532891497232, -0.11091412698956385, -0.14451677358647386, -0.002418560720943392, -0.030240811179980714, -0.05859984363307433, 0.13347097508524677, -0.0863044070914523, -0.4190228797117666, -0.006576499130369365], [0.1151149476597187, 0.11256988201431549, -0.06361236489140715, 0.1333723579461772, 0.034684938267038556, -0.07952107846279026, 0.0816317487555809, -0.08996055163755111, 0.058246037908579296, -0.05338222879383453, -0.10760437773133932, -0.06457387366528583, 0.012661276328591316, 0.0035324327101285617, 0.01154890174782871], [0.07254681662815664, 0.12320698730400252, 0.060802258677936115, 0.04173399003947723, 0.07844134899523868, 0.07043034470027379, -0.004523405816654486, -0.061569105681182804, -0.18354766514533902, -0.05900841679809018, 0.0015567507318386318, 0.03478694639139348, -0.11002890269509542, 0.008550837840874872, 0.21210555484168697], [0.04719699305311295, 0.3026480736132904, 0.1297436743380975, 0.10570076881597348, 0.143537050567281, 0.20172340671381497, 0.17354348159727231, 0.24232587172028594, 0.11132012347936815, 0.002410001455280591, -0.05664926112095085, 0.062322833571372215, 0.0973238562836356, 0.20006246425698737, 0.03565918716197654], [0.05378438207840944, -0.042268623059486386, 0.028552511402980377, -0.05101828296872657, 0.09598343458680586, -0.051484632615147345, 0.15719974403544978, 0.08812536212220826, 0.08759164684299427, 0.03474632146822469, 0.3247497944189641, 0.05539289386997054, -0.01885892718621221, -0.014102923295811183, 0.06554285752338307], [-0.08418013452084783, 0.12186033211493456, -0.10888598816648892, 0.056885162690866, 0.18176502495711394, -0.04306434832025201, 0.07153377835587672, 0.2281326158960901, -0.000990635619989363, 0.05694138959182157, 0.07030946452975928, 0.15451528269087345, 0.0175763560604259, 0.21136529645617408, 0.03801630637731119], [0.10599734891028763, -0.0037633617258498856, 0.2984114702758514, 0.10432704198336794, 0.21184917467315717, 0.15284104254454703, 0.21247938828915874, 0.0675624097308672, 0.029658668672502244, -0.02413287163188072, 0.18347878779291632, 0.01733924941419558, 0.22103176640396743, 0.13027385581042156, 0.20282067949610458], [0.01414233504018243, -0.09538084869257113, -0.26349555562249277, -0.0960731151947245, -0.0976476328348418, -0.17565396650131795, -0.11442127929855346, -0.10335728792763489, -0.09356110911461579, -0.10956315250190872, -0.07709987905317683, -0.13085770420371, -0.03810891857605589, -0.24077811424105497, -0.18686837129999923], [0.1750917355608777, -0.04847912657601553, 0.22613499317337274, 0.05950306519261311, -0.09509189070069683, 0.0814552174134208, 0.2522786388218292, 0.31774399796836567, 0.2661727811031536, 0.21969303113505553, 0.15419778402315396, 0.04553868551349914, 0.2539385842409563, 0.19558023750050127, 0.2668161255994518], [-0.0041615678033821175, 0.11365406547664984, 0.08911902963392515, 0.12386883676596866, 0.18775355364453203, 0.05123618528036609, 0.04596427323199552, 0.022819370337923476, -0.031003675664171816, 0.28954054062500345, 0.27574853011147554, 0.18753720608409283, 0.26331812448292263, 0.13869079273158325, 0.13701294569239064], [-0.05060250469199281, -0.11093434567822745, 0.08673277405388762, -0.037986605511201414, -0.0300511055756116, 0.019764375322405908, 0.1741260173422244, 0.017906110252483672, -0.06308830689845137, -0.039598203670434096, -0.14157440301356158, -0.09375569684319388, -0.01638195342213118, 0.03812859297567042, 0.00013415542999365112], [-0.0011006363891538987, 0.016240958007799084, -0.0758299322659358, 0.043699292004545025, -0.07087801773169691, 0.13494823069829823, -0.03705290900883323, -0.05923108696257543, 0.03764928318826238, -0.24294304085983073, 0.13981801629660112, 0.13457233665412052, 0.004334491751369515, -0.11865154169937792, -0.19461879967404774], [-0.00028015236785152185, 0.21026663231005968, 0.06423229763540156, 0.09445761947492456, 0.24364899676691548, 0.21925074379069792, 0.16264113888418918, 0.20750338899692605, 0.24282143745134327, 0.32025769396931225, 0.18987657060474625, 0.10276935038949536, 0.21228361328100478, 0.09880822537652313, 0.22108470739646843], [-0.17674695334418652, -0.16302890011666166, -0.18716473451689383, -0.17697550235056309, -0.1263678748164866, -0.12338166978449569, -0.0285486930631269, -0.17034912514728945, -0.07218998198832279, 0.028223238953256954, -0.01598337913883342, -0.12068625783381949, -0.018202619103851684, -0.1526662839383849, -0.016822796927751404], [0.27802319961053623, 0.1858751046120328, 0.13953647605600886, 0.09822914027647778, 0.09727745172506, 0.14061863157091795, 0.20304031982406626, 0.13401328012356037, 0.06851547449668664, 0.1764366532089258, -0.020777628737648234, 0.06845134027308404, 0.33216077131187366, 0.3071687432851235, 0.18604919476018497], [-0.026067880447019392, 0.1506080208094872, 0.06126744265640164, 0.23843909244164574, 0.3407815926139832, 0.14171751351611464, -0.0006540865408333219, 0.13504885724955212, 0.21882655499002168, 0.04995086318881097, 0.09198179019974234, 0.1644742122191252, 0.25843619276181035, 0.15366231029522637, 0.07450715228679174], [-0.1296957381802947, 0.016469297056339954, -0.058735314870768725, -0.19158317294653857, -0.17749582484920073, -0.21638053394934964, -0.16749544514285902, 0.049613528308362805, -0.13391049155690182, -0.11661091471524185, -0.20370539418144992, -0.023364823210788036, -0.09459449257719017, -0.2352728134037187, -0.1694610889852691], [-0.02517070448659142, 0.02719455799045214, 0.03734783561589865, -0.04792439467278187, 0.10551019613733732, -0.07828129207974055, 0.07471705808641005, 0.022335705947868083, -0.01846164372631476, -0.08852685809730794, -0.34165665602795053, 0.10668717329503624, -0.07807116242453743, 0.02426471869017097, 0.28299982415821767], [0.1543328207760877, 0.08365671906588609, 0.10201958994099265, 0.027923235674691113, -0.0069816210196785855, -0.03395435400800547, 0.10519446099895115, -0.028179352262063067, 0.10074497137059903, -0.12691476352965583, 0.1600686877737388, -0.044726155157070735, 0.056883356786872265, 0.07788796631951299, 0.16817152754641343], [0.13798591196161972, 0.28355800339887194, 0.10435021709122906, 0.22369301734195426, -0.009142899389334989, 0.07506659729589497, 0.13502715161941856, 0.1910972608230838, 0.24779562484842094, 0.10269274138567779, 0.12168920162046959, 0.21526476856087676, 0.28734497208665294, 0.0317754065192376, 0.0873818602280826], [-0.21945626218199368, -0.12083276279900536, -0.2257380562301412, -0.05147916994112144, -0.17246174185543262, -0.1905445278811686, -0.351617786237737, -0.1455909434715641, -0.32314541288370435, -0.047037429565728206, -0.18749156619668064, 0.03772388232802436, -0.15948164015119748, -0.13264055270490904, -0.15528232801296002], [-0.09939299682789075, -0.027486653505051056, -0.05720389865852947, -0.09692009711089151, -0.05503012723688024, 0.014827024513227932, 0.09155793834929699, 0.10794958819087767, -0.16316071077386135, 0.08196630936928358, -0.0031711170825853715, -0.250727468830125, 0.060512538382061505, -0.02834821858083185, -0.1250892301159902], [0.09298467004987168, 0.0445667377684175, -0.029078631008947385, 0.1493999665029673, 0.041014764728721356, 0.12095760718995623, 0.144785751683013, 0.036763537592918866, 0.06401096982389806, 0.06079868902478176, 0.11499486327146279, 0.1238614677055101, 0.09325858044085822, 0.15536635062883408, 0.3481132470186676], [0.17638716766953463, 0.09720025798468086, 0.23846444198809114, -0.01299680133000578, 0.41645941464866143, 0.07399284347845607, 0.09766170197401364, 0.21232060981694045, 0.10437220986841653, 0.1533798103832226, 0.4977111085606679, 0.3740738861842336, -0.0030600592491907535, -9.355702566541573e-05, 0.12122087776759326], [0.0040666901676168175, 0.005463033987168227, -0.024150752289702444, -0.27096246283476305, -0.068811150168843, -0.15171343205205648, -0.1013743705681862, -0.17633704863504285, -0.120554343029694, -0.2995560663555668, -0.13006280240249832, -0.18674799220135585, -0.06903789556065025, -0.08468266272084897, -0.21233238616485092], [-0.08090750514123904, 0.04337387408100935, 0.038016278410447905, 0.09316091354695748, 0.07853344597017418, -0.05049290199884726, -0.4056444825014107, 0.23125462660232327, -0.09141552037250608, -0.06591196437389968, 0.0780774294332247, -0.16912686994626436, -0.04869544030926853, 0.08128619675355384, -0.04629478106091347], [0.032175303821065614, 0.051219645742628314, 0.009499419747592424, 0.005605934293784109, 0.13740739565772062, 0.05469502173157854, -0.3291487057142654, -0.061743119280107665, 0.027490802620500927, -0.013693241694558116, 0.04904647611624983, -0.19883806391862585, 0.008151871430606089, -0.05351898283009197, 0.07116055399547547], [0.1623203755359233, 0.10052532318648622, 0.12001346570801076, 0.2875067332214996, 0.3529602422082621, 0.12909905159351814, 0.09418312715274929, 0.4262194182053022, 0.14499105096405682, 0.03962206009443423, 0.15558764480754345, 0.30825258831637375, 0.19720746990501098, 0.3123195096577962, -6.996177410076143e-05], [-0.10749576343406078, 0.14095595244803083, -0.1750542245293966, 0.0030172835680989914, -0.12526073866262424, -0.11079297873129146, 0.010082338975192779, 0.060257345375136405, 0.1521952145330031, -0.05411207468218179, -0.09969723319366074, -0.24730728395231016, -0.04197011638464252, 0.014428681009700156, -0.017904660061713054], [-0.12345814496643397, -0.015204845280419224, -0.07132743142581086, -0.0798243434188997, -0.02012693668356111, -0.10568857354749367, 0.11149409079589663, 0.06433769558651578, -0.029108268828762114, 0.03635536499292615, 0.11072950798954861, 0.043706711223932534, -0.06339286818029541, -0.230754144572202, -0.1850177246177187], [0.14581428726182027, 0.3135264190988159, -0.1435122640993105, -0.04346113852692916, -0.08524065221848467, 0.13394377490270648, 0.0563112964587733, 0.013973440349720645, -0.07208594244557506, -0.062151669962327426, 0.010726082162523014, 0.0501330042354549, -0.036532427313842375, -0.008801147599866296, -0.00544002986151247], [0.03508500844089748, -0.024017085639614112, 0.12575776889530302, 0.32601336085424915, 0.1435925516417772, 0.012684556112879818, 0.08004854495600536, 0.05437701580812915, 0.19520654317974945, 0.07320591175003197, 0.13366910021154974, 0.09889244917961587, 0.025827055828030018, 0.03679886015544031, 0.05663120519601035], [0.1749095637482404, 0.2473535573181945, 0.18903804075218608, -0.12306749192276523, 0.045149950709294874, 0.12449847229539057, 0.1339378689398769, 0.22037309316267295, 0.2539561079311146, 0.02468128667620422, 0.06924112595802517, 0.14167790862601295, 0.19354648792912035, 0.01748093679287889, 0.12089967192022057], [0.11118856577065826, 0.07564740050393728, 0.04832614023662552, -0.15553620844997118, -0.03944861540328768, 0.01405477497488009, -0.14928590072330206, 0.0036949626843397637, 0.003381284689235427, 0.12329660508249321, -0.19193281246840366, 0.049814421851826746, -0.0662882001295231, -0.16975933719114283, 0.0285128580229247], [0.25067054362341473, 0.19334658385408449, 0.0973373635001802, 0.20464711490997473, 0.14311854360094053, 0.1533618962738352, 0.07410854824353301, -0.04270643031405725, 0.22282182428895425, -0.0050094940152095035, 0.05544126186209759, 0.11622722930140073, 0.11791922846587573, 0.13521144537245916, -0.0547985661969194], [-0.10673608619317977, -0.014216659125180331, -0.018705929689532958, -0.12695293464053303, -0.09146360008635931, 0.060731325538732714, 0.020712718035993942, 0.052272620802085445, 0.15341308807829857, -0.10237063314935406, 0.05815403291800451, 0.10430428272405254, -0.01805969109436228, -0.016476657053001085, -0.07030214365590906], [-0.013933600750310752, -0.005153253094996202, 0.08945251557514541, -0.058398201150752886, -0.15073230445133662, -0.019823171732063775, -0.059264769004516646, -0.14175583993069024, -0.248324065626933, 0.1660675428275089, 0.023701420497139577, -0.08977015640969205, 0.0764988216454474, 0.04335707076466324, 0.04676949342214015], [0.09039221808891447, -0.09503131113865568, 0.19476453537240984, -0.06413283679625734, -0.04506443242795486, -0.12650137856719487, 0.09937791489283458, 0.1256426215868785, 0.060294402447578915, -0.19584516732864976, 0.09801444168682238, 0.18561031045346305, 0.3190493472377131, -0.10260261646584033, -0.2243994138179326], [-0.22713207857172174, -0.2118781090763192, -0.15337700118577352, 0.0020445978514411927, -0.22702952835371704, -0.21276918356186095, -0.10577636274848977, -0.09478759460809137, -0.06928098601406933, -0.0038795830634881165, -0.2696888881290349, -0.11228575760023021, -0.015460676991535026, -0.04846616050865917, -0.04529056217965887], [0.2214002291862513, 0.29144655259278607, 0.11170775448691135, 0.18478419452844344, 0.17251683067588036, 0.2626014463409978, 0.2362053458887864, 0.2728864749062001, 0.18465200951234492, 0.11858587450331151, -0.08604860961219037, 0.23263062719823652, 0.3893920627682021, 0.10352229301859948, 0.4164044195003504], [-0.14320840525928413, -0.05619055960425959, -0.11222671068116903, -0.06931068416967806, -0.1441388466643948, -0.07629439329935732, -0.17142103198326003, -0.10821187222816891, -0.21289878952558336, 0.04614265807984809, -0.001492138731280576, -0.19331967735167482, -0.13524916307023185, -0.01328801098996939, -0.01668676549590078], [-0.006141786325140679, -0.15005656976962528, 0.17598773247744165, 0.1006619678208979, -0.07228534030155291, 0.247580398182882, -0.0023853283272141927, -0.11373930301557049, 0.061812604768176786, -0.0030896733794724507, -0.17694003178258397, 0.10602123462817759, -0.1250169800412882, -0.0008595915119944691, -0.013542387777776289], [0.09822335946373073, -0.059652371095366086, 0.03351541272173191, 0.27149998090702493, 0.07233676257449806, 0.1222363654874986, 0.052011308364380796, 0.03552582527032582, 0.056627925089326105, -0.021113434446952083, 0.33752289161919874, 0.08825899415521651, 0.12262076288194615, -0.20645576167385218, 0.2085070427436058], [0.13995352008174228, 0.07841405078296122, 0.2244963184403809, 0.13498978712233453, 0.042893241675294416, 0.05243396389477223, 0.18889600359745892, 0.054422657816765335, 0.056267081117989184, 0.05244000881935025, 0.15546051738384017, 0.10628347915926953, 0.043138219471176464, -0.03754383345757499, 0.1938535289186222], [-0.06394885725911013, -0.09104741674843436, -0.27615810947131464, -0.07111191860839816, -0.1169440000023895, -0.21280792046500055, -0.34467902517368215, -0.12985397036157048, -0.025914087410835743, -0.10189508384658331, -0.17467407211312536, -0.29306353689995, -0.24952655538040328, -0.2882454941119817, -0.26925239666379397], [-0.04810505970210084, -0.0176825472159999, 0.04338988157801694, -0.01064139024392053, -0.017869517949764154, -0.17978209149652108, 0.04544348936430843, -0.08940817961988955, -0.24843135378113274, 0.050528357574051566, -0.03999784336921181, 0.08812967403819658, -0.117391538765119, -0.12482647686218923, 0.011088927122801627], [-0.28843221882522313, -0.18259997545498438, -0.1002587488640998, -0.16306607226495073, -0.22877138438469796, -0.3247681997321247, -0.11746956895521589, -0.20447896676680508, -0.2251021525833437, -0.06506221192629666, -0.39655895673421354, -0.104747394927679, -0.08334943032808342, -0.015839872298956174, -0.08689952659987382], [0.05136800729873678, -0.021862087537364135, -0.01587093806997666, 0.054553375164705604, 0.12005412695220101, 0.06959647620175771, -0.0223900212103281, -0.16845989627485713, -0.08656977546733247, 0.03963618974809022, 0.10545811290186252, 0.10406169603505368, 0.07403507247547311, 0.18891718941602603, -0.05047698913133936], [-0.0711473182627392, -0.008241194910533108, 0.05638388378327325, 0.046309220677837305, -0.19465077109281834, 0.05888397545762385, -0.014741504615846161, 0.04652307336026403, 0.01918797427536347, -0.11565110175831214, 0.034598096388018626, 0.1348732584707656, -0.028788000931327298, 0.11028376938003724, -0.11878219619097746], [0.050486161390444526, -0.07422206948426348, 0.014094173550172867, 0.10418596247327665, -0.08189493534860393, -0.13189350683035034, 0.09131228499957274, -0.06873308568379173, -0.03817838978131385, 0.03549533689341444, -0.07000521739322635, 0.08792113155977552, -0.1459928594787464, 0.06979397639025424, -0.04725498934279423], [-0.1823685555241249, -0.1522179534676302, -0.16975399317759404, -0.3147086666446815, -0.11415163337829087, -0.16848603108490748, -0.011641740299407032, -0.20336579080545386, -0.07183293916962863, 0.029743976170546544, 0.0109294406668653, -0.27581346506940874, -0.1847884114480097, -0.051666817712213126, -0.07092003227803827], [0.117356043350609, 0.13262171278526008, 0.09791155988858341, 0.18331815956004446, 0.10078560086695394, 0.021399523729747502, 0.17574219707187785, 0.19274461369674284, 0.19386908864127614, -0.04819986569195433, 0.12170996630240602, 0.09544719982129113, 0.09716644987967449, 0.3636107889514127, 0.17879350500917923], [0.25488045267207954, 0.11963096077351631, 0.034936613101962485, 0.16529620102196305, 0.2307727333858391, 0.050508739460941865, 0.06045392365370535, 0.23130564009894952, 0.0013266256007185187, -0.004562490082564046, 0.011122883595162036, 0.09596471742998232, 0.09722666107128303, 0.12239680714940193, 0.043392002654715496], [-0.17632475210028503, -0.30706517512252884, -0.07626632123072599, 0.03098048692529192, 0.01974817944099955, -0.01065904815271931, -0.24064136258744903, -0.1458167894005108, -0.0652911822468562, -0.06520730121595891, -0.08311425164155592, 0.009168107351897981, -0.1531927511651427, -0.08823019790758918, -0.038137627879347435], [-0.06155182432133082, -0.23752934929186828, -0.1670135599999301, -0.26550840439169465, -0.22590373959593915, -0.3267387944035692, -0.3606259293110717, -0.2443907014554005, -0.23282067340670365, -0.13807243987831935, -0.17022142533378856, -0.11947946395257851, -0.041498020302337194, -0.24575612342373174, -0.1742534750569372], [-0.24031628371839625, 0.011605609951828749, -0.010599497743802625, -0.1558815177842242, -0.050858358839059814, -0.14996406602659273, -0.03435144003916875, -0.06898172062290141, -0.10210549508758197, 0.01161167328341571, -0.09386144594397877, -0.1489988072776446, 0.11804861005217822, -0.30703610678791393, -0.08999670652038348], [0.1460648321796048, 0.1831552932586708, 0.268011063540558, 0.3156111019064071, 0.22167891726656874, 0.07752217755475266, 0.09335355691531326, 0.1343412705549953, 0.10566749612461478, 0.1503454312235404, 0.20196891427015892, 0.1700212937070285, -0.08798490440554184, 0.31105700620565296, 0.08788992555900293], [0.20108644927081107, 0.30881547257976366, 0.28424025363885397, 0.16158415803682769, 0.010731107916978719, 0.2302166870184001, 0.23195319462053, 0.17975746316630997, 0.3133742508500965, 0.021189961520388427, 0.019135106679360803, 0.08121761821120649, 0.19105891673282158, 0.01704134246881203, 0.37026192487229914], [0.14550046632679992, 0.026001709882482484, 0.06026683519677754, 0.08594391471831185, 0.08246023892801108, 0.032567351041568895, -0.00607999629601133, 0.1465470756777011, 0.04390353844584761, -0.1712485080574828, 0.10608516046199638, 0.14447066374815942, 0.1132598529841591, 0.19495420448597484, 0.07735400391028598], [0.022991897613701334, 0.11566431523605727, 0.05935798653752691, 0.0565256313466217, 0.11716618344699004, 0.10636193251608227, -0.004071381925385903, 0.07882382845626074, 0.11867411477764339, 0.05516393242141018, -0.048669493859375294, 0.1376686515202623, 0.021626998354524415, 0.03490232155717839, 0.06836225236567015], [0.09971809706530647, -0.03231368135734142, -0.09590821287236066, 0.2624387667416561, 0.10054720852671774, -0.19980736358645879, 0.09499795134731888, -0.046766848042661575, 0.050530474728914206, 0.008530756774727895, -0.20063012715619766, 0.14758210078457878, 0.0897095956193853, 0.03880121728758177, 0.08487524420295517], [-0.07866963679033384, -0.15560673778845474, -0.16132495468784183, 0.012774394027834377, -0.09692468786810295, -0.027305587752569617, -0.15484688182116502, -0.07874033007177976, -0.06759394451407912, 0.0015492986593478293, -0.20795782439648033, -0.03831228133104695, -0.12675520834279846, -0.006252248586032718, -0.08665744523706229], [0.1052089157460935, -0.07385671744875226, 0.11667688007064124, 0.11534018947236964, 0.025215922908788803, 0.2604485705621293, 0.07119546118652445, -0.0037981850105001614, 0.12320912766480611, -0.16340435833748473, 0.10674173682478445, 0.17766788726942145, -0.0014678463472952159, 0.1360623926373924, 0.10335678456470558]], "b2": [-0.3680688524944978, -0.39743179847126564, -0.37496375899056694, -0.3336127730617789, -0.35709523248896774, -0.3493044656881562, -0.3072387266090584, -0.29828735273005674, -0.3798232895149381, -0.2825657169105747, -0.41909164395924, -0.38624715962359646, -0.38016355656503964, -0.36827602040205154, -0.30023500654732616]}