{"W1": [[0.21144256863183958, 0.2545985801032638, 0.07637304166434923, -0.03706153929759956, -0.20067488383796794, -0.087699870826258, -0.06268893590512162, -0.3295713224419194, 0.22849103975117788, -0.039107668216296756, -0.2846139161407489, 0.09683538121989121, -0.05602703329800177, -0.22591918112975864, 0.14556356860703912, -0.11048242906589102, -0.31006092462468954, 0.15577214556331634, -0.018517019485279736, -0.15664771828369112, -0.24204253165953715, 0.16466779194752257, -0.1466342894950326, -0.14851648681679022, -0.011325250715269167, -0.03258545007045122, -0.032092054678720866, -0.04557572811339792, -0.340820020333453, 0.11181400032078412, 0.13974507875657743, -0.24448122837675204, -0.04435054801808645, -0.02042168891849207, 0.004886855687137991, -0.15940995809069472, 0.05838319842543466, 0.16443561683417518, -0.04912030808177066, 0.29759175439684227, 0.02970761088807183, 0.13914569150779083, 0.08113205555843256, -0.16550569295121018, -0.2167232381232768, 0.24382347740233268, 0.022108632378948893, 0.2728977939603382, -0.023179662857595564, 0.08868896773122355, 0.2580026202997153, 0.20961331116561266, -0.20722994549678792, -0.23859186321628945, 0.14449393646658648, 0.3989730062392748, 0.2539173389493998, -0.32955400436565163, -0.21339455536902338, -0.1493281461477763, -0.13796904854801967, -0.04907378873275884, 0.16964013176708168, -0.0014062642163572875], [0.28371308256625616, 0.14791842534284144, 0.09168496283734695, 0.028162933985845486, -0.1327776988765424, -0.14632372672890412, -0.10846145175418541, -0.10769335523291826, 0.10821029015541718, -0.24825495268410244, -0.12181085679633769, 0.008690999666168276, 0.21513748358395282, -0.1508054466881588, 0.1248754221382519, -0.25007855276340185, -0.15895887263340522, 0.342910053552129, 0.01191335541929796, 0.012330327358900143, -0.27871395329284115, 0.09499306277980442, 0.14815238376273976, -0.20605038481160434, -0.24957243452050443, 0.15910782514896088, -0.04206359488885361, -0.023860557672207794, -0.28948865842020727, 0.1666838959085102, -0.09101137459863441, 0.11305332844014455, -0.011853799202012332, -0.1358726853664437, 0.0648813312571861, -0.23434029615203697, 0.06245808660940276, -0.05375373485965205, -0.08009833826565038, 0.10580698704239806, -0.41757683977425863, 0.22974197806483013, -0.09878372340662776, -0.0017332468621132989, -0.2543945500532982, 0.258121185528518, -0.03500087095370221, 0.326589333126891, -0.08510945039582005, 0.13772222450906865, -0.05224114113351336, 0.31644151657972497, -0.14482682402735347, -0.10691891607718938, 0.11266473731816413, 0.14724474987136724, 0.0020352787478054592, -0.1964869802763008, -0.22668800746038273, -0.08371668935044298, -0.03776092640674486, 0.036276509799819834, 0.1571616912129775, -0.07815910099302648], [0.1735767621747407, -0.017643925702147855, 0.03549311444136505, -0.0647104526342581, -0.02356048085984313, -0.06557910969381693, -0.15609249436897138, -0.16287580656460363, 0.055523101612480544, -0.12552867909848098, -0.2078934184482147, -0.18974331708505596, -0.023705187415498905, -0.14295454026891918, 0.13820376961949335, 0.012282098460493806, -0.1057377507819128, 0.0662991950438786, 0.15288004214430093, -0.11602248815437387, 0.02761781600657334, 0.23406092706208567, 0.16903052665969878, -0.15896388458978042, -0.3975336851251204, 0.17230501961510677, 0.036633715443443036, -0.026867802359058966, -0.18425211298487987, 0.03007941091247187, -0.03524485682010465, 0.11688538786933225, -0.2387112110601223, -0.19783239898000624, 0.10165426422445098, -0.09807109735573244, -0.08087796317815468, 0.09357100286609647, 0.0391623086948342, 0.2033613803789082, -0.16037730224345317, 0.1738242141519678, -0.04331206115163024, -0.14924264079143096, -0.13650187731093588, 0.2838037912643361, 0.1735073616407805, 0.0038745093573710936, -0.08857413400236297, -0.11051432117387208, 0.09224869551597073, 0.07104276295249044, -0.19269279605316494, -0.1982500657749359, 0.18450745686850373, 0.07588711009374577, 0.11428380264056598, -0.2955983286958739, -0.09335668952117279, -0.09061403574254785, -0.06280912873719095, 0.10593732798025966, 0.02178785216859007, -0.18155488695468802], [0.11500148823841701, -0.06499103996727691, -0.11688958696207535, 0.10882029689228974, -0.06471483029410835, -0.09840385360238099, -0.0427569230878324, -0.20279298530116144, 0.04518914829521628, -0.0689667870139699, 0.003936752742768318, -0.03946582192727222, 0.11753619786235016, -0.08445698733525256, 0.10460173270178602, -0.13387337193088433, -0.13147922816288085, -0.04111848502155652, -0.07225450181748841, -0.015985238473096623, 0.05972968966018395, 0.04132810581445012, -0.004023957494298233, 0.11134029100160599, -0.06918460207144596, 0.17897894960758712, -0.04952400686781522, -0.036214573655473016, 0.12240662693663387, 0.03630424432132027, 0.060873814897477584, -0.1146321645599374, -0.03617760078505665, -0.053887151693264405, 0.06453128731259865, -0.22728987068763726, 0.011316768574775678, -0.00681232721518222, -0.028395726574451254, 0.1463655376445635, 0.06494589964111819, -0.1312203465898118, -0.047822493810525675, -0.1302624358157893, -0.055918083745733954, 0.17046191774991026, 0.014974893646462782, 0.08737517206480737, -0.09453530202919745, -0.06948205959906928, -0.04083744406471543, 0.29766230874651073, -0.08489419707700312, 0.004675823599876153, -0.02315063819805897, 0.14803144485154926, 0.13823994979817536, -0.2414711710583692, -0.09417537525520232, -0.1547176629209221, -0.12437289299272436, -0.016640568077365622, 0.03569053898350717, -0.14049005306308468], [0.279831271546867, 0.010416422872006474, -0.17330510710872524, -0.09312389459600287, -0.2141595656947311, -0.05927606664008653, -0.0485400732589292, -0.22664964202701177, 0.17196303641071564, -0.26240372351786967, -0.052357905834056466, 0.12893363046473874, 0.02033422563674701, -0.28081299931769, 0.184875729886017, -0.3512829894176309, -0.1118024607843462, 0.20691141135898145, 0.0707489335858841, -0.13358067005915533, -0.35074292162796816, 0.3837705161659924, 0.07736064667258376, -0.11531931302528109, -0.32134151303670017, 0.31089572529869175, 0.1749394842783008, 0.14533161748891846, -0.24477863316674872, 0.04347924253770377, 0.16128327595286732, 0.04315401040602577, -0.3076922096433392, -0.27363338050028885, 0.14798594127257947, -0.19867120223261156, 0.07278897232379894, -0.02552791430056305, -0.09933996453192134, 0.17605174265623968, -0.5241590680098687, 0.09872424942468147, -0.011587444397808956, -0.15483557197071474, -0.03219407293218846, 0.14137976387827372, 0.1624098545489048, 0.2581141568265478, -0.07669519886974271, -0.12386204425678954, -0.03619853443815245, 0.1669230142162441, -0.2847857748415608, -0.22052935871612475, 0.1333764469150651, 0.36751609227763254, 0.1360323550926129, -0.17876655455484214, -0.36361518180693503, -0.12020383438308568, -0.13264621163324533, -0.1097156095146147, 0.14492922335909886, -0.187148156861444]], "b1": [0.29836623472228607, 0.23249625005384328, -0.019602293898623408, -0.03207103720306077, -0.27068281562370655, -0.11490699669926313, -0.14774803461002553, -0.21681994262969165, 0.27526218886472736, -0.35515215474114703, -0.2894702015253543, 0.047663196637886276, -0.015238667594709413, -0.3571452046093182, 0.21608028130105203, -0.33871077468714117, -0.30839790814504137, 0.23731320856457755, -0.034499716311278315, -0.11134621977826378, -0.28936757539806807, 0.32182535254451455, 0.11189907855019239, -0.22253102580693784, -0.3477966641893657, 0.2536115694759759, 0.026392791973112544, 0.018889946343878215, -0.36762303697956616, 0.06109007306795348, 0.07753474803024804, -0.07603892977572581, -0.17007206286500026, -0.2863885809373079, 6.999822609088975e-05, -0.2227217394814661, -0.03239501296113109, 0.05672764397614654, -0.06073133922163696, 0.2304544753350036, -0.3841925758174116, 0.20624609890996004, 0.017449221774958598, -0.17523389809970333, -0.19932932018637206, 0.3678452953542862, 0.09129152833413873, 0.3572375202883264, -0.05189912115158074, 0.0006199999722080869, -0.007897224887763387, 0.24130544403386323, -0.25098624562314276, -0.15938171880665075, 0.20050595350932732, 0.35709228913750857, 0.18148106018871962, -0.271673161773397, -0.33393608748239223, -0.16642795197909083, -0.12476852001198914, -0.07180650788185189, 0.19100890258091366, -0.17240029005567575], "W2": [[-0.20985211643461849, -0.3770840077638943, -0.24569681829621348, -0.1169869495547322, -0.005680029864000478, -0.08854390788551579, -0.053869130654493405, -0.03790016193571857, -0.14653560020471854, -0.11764240585293838, -0.17246574614624083, -0.25873684357330845, -0.2694373867408522, -0.08653893577655238, -0.1421074283224045], [-0.10360702213697083, -0.1033992265513043, -0.06717895012782286, -0.18747910628584788, -0.087846236637643, -0.04308411481081832, -0.10932152930392823, -0.1426687494684644, -0.0006404481069987725, -0.015972927648830158, -0.0563654982001658, 0.1369144589843794, -0.08516926439030464, -0.4155120163404504, -0.006437576330720273], [0.11695398280402258, 0.11369658166619002, -0.06104130599798896, 0.13643783710590018, 0.036345909902834594, -0.07740773143739803, 0.08244928571364989, -0.08896640865701246, 0.05919509805379321, -0.04890739221353751, -0.10636589187288835, -0.0625030654885832, 0.013513781687521688, 0.005678029232064728, 0.012378956170836394], [0.06978352660460183, 0.12146068423286123, 0.05699336063468891, 0.037236853034116266, 0.07593132334060443, 0.06726976605604819, -0.0058273603932258, -0.06312319273397225, -0.18503120729980768, -0.06777501427094318, -0.00035729406841464545, 0.031700439975924304, -0.1111571785941985, 0.005363356717058299, 0.21064175050713901], [0.04532041289565171, 0.3013282768174476, 0.12732605209161976, 0.10292482645621721, 0.14183691546324007, 0.19962916141601084, 0.1724748451371665, 0.2411244894060648, 0.11015356692947112, -0.01040803286794418, -0.05805941201268529, 0.06027327255621075, 0.0968207863128795, 0.198026845024341, 0.036593136817683794], [0.0544791241118524, -0.04191840350068076, 0.029615621968533633, -0.04971461313598801, 0.09661609146930444, -0.05066138467205149, 0.15741430929538794, 0.08842560793856914, 0.08786629470412864, 0.03227157832408262, 0.3251626221731413, 0.05620138093213586, -0.018399677291377564, -0.013224093507639447, 0.06744526840786143], [-0.08497494024749751, 0.12127884264394032, -0.10988630345376821, 0.055746628461072256, 0.18104546599124222, -0.043946989985261954, 0.07105778414501765, 0.22760499861494704, -0.001505199565683925, 0.05021315758739692, 0.06969879247410558, 0.15365671839094558, 0.017402924431528785, 0.2105188556582995, 0.038981703800779775], [0.10666956247043112, -0.0034961103820220834, 0.2995477163146822, 0.10576114570965096, 0.21247713451106914, 0.15368321599270457, 0.2125779982615064, 0.0677642536445299, 0.029826385713500957, -0.030888498681940803, 0.18382242095335888, 0.018137735827992347, 0.2216323857123128, 0.1312187809463144, 0.20539058369543636], [0.016393108779520913, -0.09383138552996935, -0.26055610185725664, -0.09267711229883514, -0.09560913811661662, -0.1731313169825541, -0.11318379153636123, -0.10195163878767043, -0.09219991563192594, -0.09584901889171299, -0.07543640824189017, -0.12838713025228055, -0.03743056443817961, -0.23830760153039682, -0.18749545961084338], [0.17276459102971037, -0.05011313463374963, 0.22311656523298948, 0.05603454649955301, -0.09721378062833597, 0.07884177940575136, 0.25096720743840983, 0.31626618666096934, 0.26474250266003185, 0.20453070154568173, 0.1524490395732599, 0.04300471319152832, 0.2533160051454541, 0.1930295551460008, 0.26796644558987276], [-0.007171827331294643, 0.11162631164622125, 0.08512331831489753, 0.11922430191674549, 0.18502062628557042, 0.04783796915213594, 0.04437519210704622, 0.020992758838276913, -0.03276503149423489, 0.2736626193582692, 0.2735610319001926, 0.1842208454573907, 0.26229749080178766, 0.13533290084847233, 0.1372840937642336], [-0.04903126918340135, -0.1099236391062788, 0.08886938040165299, -0.03547629267382851, -0.028626830338608626, 0.02154964235379805, 0.17489894213845683, 0.018814802322008304, -0.06221615389092046, -0.033778148733759124, -0.1404668901246519, -0.092003909206629, -0.01577948538416404, 0.03991586232501806, 0.0007924284406813666], [-0.0033724228600731715, 0.014849852065453048, -0.07900759789446392, 0.03993100947808537, -0.07294157190223854, 0.13234372369319272, -0.03807923266915587, -0.060472035055683326, 0.03647064052220824, -0.2477055553218467, 0.1382735139655009, 0.13201662842426048, 0.0033009809100657725, -0.12130124881057545, -0.1971209057169561], [-0.0028092691522293095, 0.20850176631796108, 0.06095309110084157, 0.0906850133356445, 0.2413538102105424, 0.21642050907625213, 0.16122079997373068, 0.20590035992918945, 0.24126812659477218, 0.30385263754632696, 0.18798647651452632, 0.10000450441956381, 0.21157603769363142, 0.09604686656848392, 0.22202810348392835], [-0.17600179650786635, -0.16243318353719882, -0.18629707792098874, -0.17602173993293027, -0.12569949927434618, -0.12258020287739188, -0.028029299503860135, -0.1697954147620459, -0.07164281908900381, 0.03734834488320215, -0.015369866848990766, -0.11989594373551697, -0.018156373456256054, -0.15193065850053375, -0.01833826161944438], [0.27670662318389716, 0.18486998820504683, 0.13793833971547773, 0.09644277819402178, 0.09608550491738166, 0.1391779924513111, 0.2021847336817778, 0.13308575527365962, 0.06760541364214065, 0.16346370410568015, -0.021832249471105365, 0.06704250171024553, 0.33198960804268074, 0.30581378601794684, 0.18786406192407448], [-0.026846491687294978, 0.14996504724197096, 0.06040073674497473, 0.23750204311363596, 0.34009379578865195, 0.14089986845455682, -0.001233945878501393, 0.1344403109226024, 0.21821920800990188, 0.03902962253073532, 0.09132396903263867, 0.16364957370602662, 0.2584141680308211, 0.15293189802877805, 0.07636842186318024], [-0.12630588670285392, 0.018742694465889925, -0.054207891012680025, -0.18630971987614828, -0.17440793746209485, -0.21253433132460153, -0.16573166482739754, 0.05164947032127692, -0.13195105617223873, -0.09964545949933008, -0.20124956804196334, -0.019632279967189678, -0.09346491515599094, -0.23146028886276993, -0.16997294398190985], [-0.023316228948270255, 0.02835535639133486, 0.03992056090587921, -0.0448757215209831, 0.10719290551997794, -0.07615342259703482, 0.07557013461708213, 0.02336166163505519, -0.017483952695220916, -0.08293634514972667, -0.3403873280748178, 0.10876254406586792, -0.07729811890961799, 0.026417133400860823, 0.2838556627309583], [0.15283186055462594, 0.08264464884078303, 0.10003186642243853, 0.025615736786515703, -0.008341281616383202, -0.035643596080083224, 0.10439801228106241, -0.029094212062699066, 0.09986282324445868, -0.1351183897835602, 0.15897833851587106, -0.046382021337566116, 0.056394850739741695, 0.07622085863828847, 0.16814556330494793], [0.13397378991511896, 0.28086445091211687, 0.09899089864125207, 0.21746031279278819, -0.012805827829671114, 0.07051350038122754, 0.13293034131317147, 0.1886809818275345, 0.2454724483020491, 0.08298725452800103, 0.11877218698642171, 0.21085083615425634, 0.28600038056853494, 0.027260020703938466, 0.08751822447465789], [-0.2162047647711488, -0.11861445852362038, -0.2214415287811954, -0.04650683817301749, -0.16949608367908672, -0.18687268356375597, -0.34986826135095533, -0.14359195709900868, -0.32121973405847076, -0.02907387056467826, -0.1851002159093385, 0.041289473904416056, -0.15847243054090007, -0.12901982424864702, -0.1556341286344388], [-0.09823458868194963, -0.026697039995575652, -0.055656235083629046, -0.09512027890549066, -0.053965333708384224, 0.016151701962570576, 0.09216353668179379, 0.10864720335066776, -0.16249148464065816, 0.0881147653903979, -0.002324371856736148, -0.24946409085116836, 0.06086221439780873, -0.027034977792607134, -0.1257020965655426], [0.08914556513120549, 0.04203515147688371, -0.03426003084104437, 0.1433411484016311, 0.03751569374122244, 0.11658640123296574, 0.1428449127275051, 0.03450313428541731, 0.06184201877300331, 0.043833394673268654, 0.11224826208306585, 0.11961947181903103, 0.09187051627868643, 0.15100811183009258, 0.3478982736977123], [0.1735540789571543, 0.095236941041126, 0.2347514556888422, -0.01727974812879094, 0.4138731447530598, 0.0707977468478057, 0.0961051149836862, 0.21055317562240136, 0.10266699008619845, 0.1361839740242574, 0.4956064002113272, 0.3709814992211783, -0.0038654700145934915, -0.003229742213121613, 0.12222307531510396], [0.003743307722660781, 0.005416148964819701, -0.024783820126254696, -0.27180131851723294, -0.06910325225336215, -0.15213579673071762, -0.10132198727353271, -0.1763548667509801, -0.12055259199432534, -0.29260227347776474, -0.13016058274339593, -0.18716943045953896, -0.06951442932740447, -0.08519306067598503, -0.2147459146347819], [-0.07902125319975639, 0.04457776471154588, 0.040606504378941415, 0.09620994820433292, 0.0802513495857323, -0.048336443339215766, -0.404739652311883, 0.23232724227737442, -0.09039203228614362, -0.05952123799205272, 0.07939559949442947, -0.16702627993361577, -0.04796518502830944, 0.08345708766538917, -0.04530499514393334], [0.03351725222263516, 0.052074954635519026, 0.01134475066112564, 0.00777852772891469, 0.1386312976999615, 0.05623097535206166, -0.3285064664816791, -0.06098137408996522, 0.028217263385113024, -0.009331248083530554, 0.04998492743693367, -0.197343922328152, 0.008669489241008568, -0.05197149799984075, 0.07189741628680589], [0.1577336191132493, 0.09744690424634601, 0.11387881147976099, 0.28037438702154416, 0.34876669081573836, 0.12388893088873065, 0.09178880326253619, 0.423460080582912, 0.14234050504612902, 0.017410023356426583, 0.15225208265837836, 0.30320997562033253, 0.19564125480500097, 0.3071479305178828, -0.00010541424898470013], [-0.10713964673641481, 0.1412353440111227, -0.17463775669170162, 0.003485974374179088, -0.12494921058369798, -0.11040973748854431, 0.010319348497501879, 0.0605135426590173, 0.15245118373075434, -0.04957312828514819, -0.09941480723675465, -0.24692438654121368, -0.041936669557844135, 0.014779334644844107, -0.019084916596590448], [-0.12325296219379125, -0.01502920219780817, -0.07111539857262693, -0.0796077648256342, -0.01994899831258676, -0.10548579770570254, 0.11166614173010087, 0.0645141010616221, -0.02893191643432297, 0.03964616526618855, 0.11091158604953505, 0.04392547022710741, -0.06341517582095466, -0.23058061269285451, -0.18507417523187056], [0.14759075034724792, 0.31460895682679874, -0.14099757491335418, -0.04045719789529327, -0.08361949912004571, 0.1360082984401478, 0.057075585027901714, 0.014913334114670222, -0.07119634416635903, -0.05868618389517676, 0.011917128206362173, 0.05212505182501223, -0.03575061180300366, -0.006691136787589513, -0.004654111371049674], [0.032855011630618755, -0.025527652256273035, 0.12280176057689915, 0.32258379666855597, 0.1415641408283933, 0.010166730851138362, 0.0788647689786079, 0.05301767466689138, 0.19389803448722936, 0.0610100420293048, 0.1320433882828166, 0.09644084785289175, 0.025135686994979957, 0.0343123845239163, 0.05677733487545623], [0.17268699541655202, 0.24580626908010178, 0.18613320815239795, -0.12641235456214764, 0.043119614104494525, 0.12199407534324641, 0.13270595279244865, 0.21897807741244613, 0.2526096246241386, 0.010937016629590056, 0.06758230920152472, 0.13925459991019548, 0.19292545578136644, 0.015026204685508016, 0.12170568978087618], [0.1106914434078125, 0.07537931808142362, 0.04759287559594775, -0.1564262152663305, -0.039898200630328465, 0.01347606808953738, -0.14946786903060658, 0.0034579133261993375, 0.003158978407528011, 0.12421054321396341, -0.19224462052929817, 0.04924064735626096, -0.06660512372193209, -0.17036542648065287, 0.027425718247323008], [0.2523617730117767, 0.19424357516295337, 0.09987048892780585, 0.20773869061983186, 0.14465208133140156, 0.15535180008888885, 0.07468253965788489, -0.04193402516678722, 0.22353837167831309, -0.008338204320756224, 0.05647434832629467, 0.11818096102910983, 0.11896083283062452, 0.13730970110391638, -0.05141944809786843], [-0.1067180617516299, -0.014199917201613493, -0.01869667036243062, -0.126940692252099, -0.09145663018021107, 0.06074354097913783, 0.020729389993071674, 0.05229021787562003, 0.15343397422564614, -0.1015744618262794, 0.058166622513557815, 0.10432751210782207, -0.018077650485955363, -0.016472807397141333, -0.07066455791143521], [-0.01304652260844745, -0.004572909347834852, 0.09064226179253454, -0.05700794367314078, -0.1499334038017041, -0.01882510292893161, -0.058812486509745486, -0.1412297502807805, -0.24781745040600964, 0.17020699605891135, 0.02433100820633428, -0.08878205907088386, 0.07684094447817316, 0.044349024482161735, 0.047137582584605965], [0.0902133059862705, -0.09519510400056694, 0.19457214565897107, -0.06433067853168185, -0.0452319282412055, -0.12669500611477122, 0.09922989019346, 0.125491747578506, 0.060144977482971165, -0.19877269186470897, 0.09784789547309364, 0.18543119322286472, 0.31908010753010696, -0.10277309732648812, -0.22368541897519847], [-0.22675586165680384, -0.21149869362938664, -0.15305012615786542, 0.0023492967960762473, -0.22670646121925142, -0.21240692895774008, -0.10540199871657338, -0.09441728258924671, -0.06890381851203504, 0.005432268123341257, -0.26932014753366457, -0.11190738847561402, -0.015595404974100401, -0.048188461344791655, -0.047193803098286365], [0.21698020458086048, 0.2884618456897744, 0.10580991442981107, 0.17793745691010676, 0.16846929594364857, 0.257579555485334, 0.2338794127524901, 0.27021244324476595, 0.18208355032781304, 0.09651763823388242, -0.08927905882423764, 0.22778135245019643, 0.3879728104687269, 0.09854380482822694, 0.4166473775848723], [-0.13929274860221702, -0.05361626718322842, -0.1069314618393561, -0.06311264120489418, -0.14057014538133075, -0.0718320158148477, -0.1694538737880032, -0.10591622308536805, -0.21069695598903082, 0.06309686343246039, 0.001301604886086618, -0.18899041166424735, -0.133819307830959, -0.008834397145662455, -0.016453743911848593], [-0.0050976069881356134, -0.1494112214111102, 0.17743914875722716, 0.10237789667335041, -0.07133731929966206, 0.2487736005487376, -0.001902378995250767, -0.1131601525700226, 0.06236408550316081, -0.0006365245456609561, -0.1762233237407265, 0.10719493384607993, -0.12454695976515315, 0.000350346037386146, -0.012400565981972655], [0.09847132309754598, -0.05960458010107412, 0.03399844971955601, 0.27213726375825087, 0.07256952841927042, 0.12256862376760815, 0.0519769033185997, 0.03554354146766843, 0.05662954482809394, -0.026255622018141668, 0.3376081241841708, 0.08857145538726688, 0.1229446015035869, -0.20605725729834232, 0.20994758414078074], [0.13872326834248977, 0.077525373995805, 0.22294657076345067, 0.13321643506732744, 0.04178975344037079, 0.05107316911754103, 0.18816886559210594, 0.053613131825065385, 0.055474579972719866, 0.04219235397289781, 0.15452643235038238, 0.10494430605043989, 0.04285054248427697, -0.03884813602740351, 0.19538312143696304], [-0.063231251455175, -0.09041487397880413, -0.2754058000131124, -0.07032466613114963, -0.11630975761149522, -0.21206652739835086, -0.3440950654348459, -0.12925338746238557, -0.025311902334384465, -0.08976515520959405, -0.17403751116925545, -0.2923197100598896, -0.24959965096723535, -0.2876056318779587, -0.27161042872656727], [-0.046786856915648434, -0.016796028519842514, 0.045147209744064914, -0.008600595935190792, -0.01666853059842032, -0.17829073359498546, 0.046134794954274146, -0.08861140834824102, -0.247666333792366, 0.057363636751292274, -0.0390415950894898, 0.08958050170609892, -0.11696834227058725, -0.12334870977042461, 0.011230099049675599], [-0.2861190218864685, -0.18096403072347972, -0.09728982454750072, -0.15966091416476272, -0.22667599322505866, -0.32218893142885024, -0.11614109695202104, -0.20298932451778312, -0.22365395059702797, -0.048827315444566005, -0.3948132759448148, -0.10222450242832778, -0.08275368779459666, -0.013338245620478908, -0.08830850825246381], [0.05236108726536395, -0.021294880880215014, -0.014430751924725737, 0.05628598345240266, 0.12095813990650674, 0.07075202676165016, -0.021996442307615223, -0.16796180520801224, -0.08610188836080652, 0.03947596027863015, 0.10610183226430701, 0.10519305514678848, 0.07457138570749196, 0.1901155204927511, -0.048898796331353904], [-0.07010635647627765, -0.007597199146546419, 0.057827442532993094, 0.04803029633193975, -0.19371426223670954, 0.0600767143309147, -0.014269680683007652, 0.0470928634715494, 0.019735415026409135, -0.11273039406934166, 0.035304140387755034, 0.13604518704896412, -0.028312336593055275, 0.11148845328566154, -0.11867978471534517], [0.051899513634148575, -0.07333214347135335, 0.016028284260479034, 0.10647118297704704, -0.08062716392482795, -0.1302928850650542, 0.09198457158150075, -0.06793283912551283, -0.03741008930736563, 0.04062363191666528, -0.06903420957825691, 0.08951057703234756, -0.1453868278671543, 0.07140113828505969, -0.04646581251857168], [-0.18500179688187152, -0.15368289213910122, -0.17360738038518642, -0.3193774104537313, -0.11653108134260125, -0.17155343647550542, -0.012627681907365882, -0.20464308711308055, -0.07303083667004899, 0.031012073372223465, 0.009269694920280748, -0.2788345028273485, -0.18625746546741315, -0.05486093106438762, -0.07509196606828175], [0.11537274674778979, 0.13122367410508579, 0.09535779382466986, 0.1803863151044796, 0.09898943681510916, 0.01918599663339988, 0.1746128086469676, 0.19147438876843215, 0.19263623453165668, -0.062106312380024224, 0.12022110239658947, 0.09328245756558819, 0.09665364994291371, 0.3614601698434918, 0.1798906149868128], [0.25203195795793104, 0.11772603838147423, 0.03113609479560066, 0.1608681508957925, 0.22818748027870414, 0.047286532791858356, 0.05897350161993484, 0.2295948569800922, -0.0003205611249692587, -0.01911867331453002, 0.009068177554521571, 0.09282076314470387, 0.09626491551868913, 0.11920469904625346, 0.04356176052272991], [-0.17352197135686623, -0.3051940802602155, -0.07251677787082575, 0.03535050048704955, 0.02229798755720288, -0.007481541516878994, -0.23919104525469495, -0.14413933250224228, -0.06367785402054107, -0.05140467597515993, -0.08109225107978017, 0.01225929783577453, -0.1522284365885241, -0.08507726025705915, -0.03823494528037152], [-0.05954360485931595, -0.23608086678684737, -0.16449051395629116, -0.2626346964523856, -0.2240999258991837, -0.3245286764098176, -0.35942302574784424, -0.24305628661622458, -0.2315163142371555, -0.12185746478594403, -0.1686857750775017, -0.11729051176197425, -0.04104754771985314, -0.2436383015698739, -0.1756801348853507], [-0.24054818767126057, 0.01156922354328538, -0.011073556764240194, -0.1565080755986784, -0.05108578073363476, -0.15028823177925668, -0.034301827144547804, -0.06898368612078604, -0.10208863061350551, 0.01725327602710916, -0.09393635954673608, -0.1492885413134814, 0.11773123571853328, -0.3074328727820493, -0.09149599879365057], [0.14698856176506758, 0.18355828673686436, 0.26952418086734437, 0.31750123541648295, 0.2225383551138015, 0.07866128399197331, 0.09354171446571555, 0.13466104191604128, 0.10594393747209532, 0.14304988870970228, 0.20247081274133258, 0.17110879047299307, -0.08723488618683749, 0.31231541628938797, 0.09107087436366412], [0.19866276991266923, 0.30711029291162667, 0.2811117670742904, 0.1579924758913712, 0.008530124005191589, 0.22750647563647874, 0.2305760144969709, 0.17820844140637226, 0.3118720423307007, 0.00480126658559267, 0.017312640601794504, 0.0785737058390819, 0.19042258397743217, 0.014403839523882944, 0.3714452449424388], [0.14663484645774247, 0.026599212081374442, 0.06197468847872729, 0.08803203640262909, 0.08349136725887467, 0.03390780352213935, -0.0057039309839938416, 0.1470578330052321, 0.04437616198266615, -0.17381432827352347, 0.10677482697839386, 0.14578092621465338, 0.11396107419536117, 0.19637105125801138, 0.07955262909973626], [0.023710868081781647, 0.11602630409864813, 0.06046857451253603, 0.05789236912537577, 0.11782605994658199, 0.10722470963541075, -0.0038593279837159204, 0.0791258435952199, 0.11894907596537536, 0.052390320292418184, -0.04824429206216307, 0.13850162744450048, 0.022111197648353887, 0.03582651478902628, 0.0699569814202743], [0.09918988021716126, -0.03267601107044716, -0.09659454007224132, 0.26164951684712423, 0.1000693001945613, -0.200394724573903, 0.0947020046130782, -0.047101266040073246, 0.050206496727021425, 0.005484638018313306, -0.20102397289295346, 0.14700024297717354, 0.08955924481557354, 0.03822692948123253, 0.0847082174788455], [-0.07706697238215138, -0.15448888113434175, -0.1592463165063841, 0.01516992178617912, -0.0954728491038008, -0.025510688531411897, -0.15395078953812696, -0.0777275223564868, -0.06661128888492465, 0.012103662722214472, -0.20676352366257353, -0.036558678392398264, -0.12630529553230765, -0.00450186900807159, -0.08754650799904974], [0.10589397570320619, -0.07354239751193249, 0.11775483676784597, 0.11668335288681148, 0.025831800924506543, 0.26126653672329087, 0.07136740366401942, -0.0035336281197269792, 0.1234498260269805, -0.1670960538663899, 0.1071208915443739, 0.17848095741118836, -0.0009363228663258888, 0.13694717848254714, 0.1053100973143253]], "b2": [-0.36257548311547055, -0.39363942334325974, -0.3677287165369226, -0.325289745132295, -0.35203985954400213, -0.3430899194955397, -0.30421114710556585, -0.2948598271445648, -0.37652538852747625, -0.25304485185177716, -0.4149769933270641, -0.3802609054348702, -0.3784264424752503, -0.3621516331495194, -0.3001525134442772]}